svm_type c_svc
kernel_type rbf
gamma 5.90458e-05
nr_class 3
total_sv 4805
rho -0.969235 -1.03444 -1.00972
label 4 5 3
nr_sv 2378 2048 379
SV
1 0 8584:1.0200903 13708:1.8943204 14854:2.1253694 
1 0 5058:0.41296127 5981:0.55551278 6187:0.28027418 13147:0.38540227 13452:0.41011748 13455:0.58836318 13589:0.28078569 
1 0 1178:0.40165256 6692:0.31804163 6928:0.17791827 7259:0.32917352 7463:0.29090366 8239:0.4753445 9711:0.43457113 9836:0.41072024 10243:0.1836185 10358:0.26705277 13698:0.3530244 14076:0.284834 16300:0.19804893 
1 0 7090:1.8620738 
1 0 6928:0.37807633 7090:0.46551845 9339:1.5337366 
1 0 51:0.16364122 1281:0.20738871 3134:0.33248782 4055:0.35179568 5089:0.35179568 5500:0.22528344 6928:0.28805815 7915:0.21902935 9023:0.22965523 10080:0.15338305 10531:0.29566925 12347:0.34116979 13147:0.18352489 16264:0.19619254 16431:0.23870493 16638:0.19227644 
0.2340110096936138 0 3495:1.7911414 6464:1.5722742 6636:0.73406829 8347:2.0202141 
1 0 1762:1.9098271 6636:0.97875772 8924:2.0963657 
0 0.6281302409057796 416:1.0220884 3934:1.2752217 7738:1.4329131 14833:1.4775418 
0.4400477629585567 0 173:0.71645657 6242:0.80808564 6928:0.60492212 9878:0.80808564 10166:0.71645657 10886:0.76753913 11988:0.43080955 15628:0.76753913 
1 1 11999:1.0348424 13071:0.88471128 13223:0.7258605 14777:0.56415531 
1 0 6292:0.37661094 8520:0.65930293 9163:0.38421488 13452:0.58588211 14930:0.68095292 
1 0 416:0.5110442 1744:0.57782713 2986:0.58295646 3332:0.6576779 6056:0.47309523 13455:0.58836318 14776:0.39456899 16341:0.37114086 
1 0 3980:0.74384023 5925:0.35366851 6928:0.33606785 9849:0.39014593 11367:0.63144013 11480:0.7758049 13452:0.45568609 16638:0.44864502 
1 0.1955628561787101 4417:0.98060531 9163:0.4482507 14623:0.85606957 14945:0.83546725 16459:0.54751098 
1 0 51:0.85911638 7717:1.5940271 8119:0.68284269 10080:0.805261 
1 0 4795:0.48377669 6338:0.26037937 6636:0.22586717 6790:0.72516317 8757:0.36951628 10080:0.24777262 12002:0.30729847 12035:0.51496631 12419:0.34179002 14730:0.33979191 16422:0.3214526 
0.3239998310872235 0 380:0.89787294 5166:0.85282126 8770:0.35325469 12762:0.89787294 14462:0.79606285 14518:0.55442377 16865:0.59333516 
1 0 1247:0.23670197 2391:0.40396796 3936:0.36748653 4299:0.24629784 4381:0.2232318 6928:0.15919003 8241:0.19273767 8558:0.36748653 10376:0.15885586 10680:0.27619174 13147:0.4056866 13372:0.28277927 13685:0.27033776 15443:0.3888268 
1 0 432:0.18046088 1661:0.2461928 2426:0.35822828 3700:0.40404282 4548:0.28647406 5500:0.23654762 8515:0.2638748 9588:0.17182328 9898:0.22216351 11422:0.34911221 11988:0.21540477 13223:0.21775815 13788:0.26238215 14082:0.28647406 14901:0.15625147 16790:0.23567803 
1 0 2258:0.67160993 3613:0.3391435 6636:0.26693392 6928:0.2749646 7127:0.39592391 7191:0.32305889 12143:0.65132415 14596:0.54007184 14976:0.31372669 15917:0.36471179 16729:0.28570835 
1 0 416:0.42587016 609:0.34098936 2133:0.2875828 3056:0.51742119 4063:0.6734047 6578:0.45965892 6636:0.24468943 7799:0.53928488 12002:0.33290668 13147:0.32116856 16459:0.27375549 16697:0.34333694 
1 0 9150:1.2105445 12978:0.87912706 14981:0.91400245 
1 0 373:0.28497478 2899:0.6576779 3383:0.73877092 3932:0.71645657 6292:0.26362765 6928:0.30246106 8770:0.31792922 15459:0.80808564 16729:0.31427918 
1 0 8770:1.0597641 16898:0.8019388 
0 0.7206385390425345 51:0.42955819 8129:0.82209738 8418:0.95942391 8633:0.65233194 11131:0.82209738 14777:0.42311648 
1 0 10080:0.29282218 10243:0.28377404 12419:0.40393366 13147:0.3503657 13665:0.5014461 14803:0.43169563 14806:0.46694704 14872:0.73462331 14901:0.28409358 16638:0.3670732 
0.5391572885703189 0 2330:2.5584638 6636:0.97875772 8924:2.0963657 
1 0 1216:0.39224212 3631:0.18434603 5801:0.34069613 6292:0.17575177 6357:0.23873645 7191:0.23690985 8730:0.25361269 12143:0.47763771 14291:0.34984287 14582:0.53872376 15917:0.26745531 
0.4653379669884136 0 6790:1.5711869 11507:2.3274147 
1 0 4758:0.52769352 6636:0.2097338 6790:0.3366829 6928:0.43208723 8449:0.34728433 12000:0.35973814 13261:0.54824224 15058:0.54824224 
1 0 373:0.18998319 4285:0.21048217 4504:0.38196541 6928:0.20164071 8473:0.33265426 9595:0.31197727 9832:0.49251395 11442:0.40439689 12000:0.3357556 12853:0.28134178 13147:0.25693484 
1 0.3541009692709094 5104:0.83376668 8645:0.850443 12978:0.70330165 13231:0.92617377 14515:1.3656187 
1 0 2281:0.59407903 3936:0.69822441 6928:0.30246106 12270:0.69822441 13147:0.38540227 13452:0.41011748 14337:0.80808564 14930:0.47666704 16762:0.40290715 
1 0 1784:0.18942844 1799:0.12913677 2213:0.12975465 3064:0.17165544 4032:0.11426963 4285:0.16190936 5062:0.10903115 5293:0.13455495 5812:0.13308935 6790:0.12086053 6847:0.13238681 6905:0.1369235 9003:0.16593381 9163:0.068961646 9701:0.1790319 9742:0.054355156 10250:0.1063854 11165:0.11716182 13589:0.07199633 14718:0.089507689 14763:0.12466617 14776:0.10117153 16246:0.16348996 16422:0.10715087 16459:0.084232458 16752:0.15553727 16898:0.308438 
1 0 2133:0.15686335 5925:0.28936515 6928:0.2749646 8330:0.27003592 8373:0.24421846 10080:0.14641109 11018:0.28222974 11199:0.29415539 12407:0.27279159 13147:0.17518285 13589:0.12762986 15875:0.28188003 16074:0.19741758 
1 0 4588:0.44235564 5801:0.42587016 5902:0.34575257 6338:0.28207766 7977:0.61564244 8730:0.31701586 9198:0.4735801 10044:0.43730359 10849:0.59704714 12933:0.63961594 
1 0 309:0.58295646 1928:0.73877092 4656:0.6289097 6013:0.71645657 10904:0.49028026 16904:0.34461274 
1 0 2895:0.3750652 3287:0.43457113 5925:0.18723627 6636:0.17272195 7958:0.45149361 9087:0.43457113 13589:0.16516805 13609:0.43457113 
1 0 373:0.16763222 1249:0.43457113 2895:0.3750652 4426:0.30697974 9944:0.21032392 11054:0.45149361 11579:0.38686935 12166:0.40165256 13147:0.22670722 13223:0.25618606 13452:0.24124557 14777:0.19911364 14806:0.3021422 
1 0 432:0.36092176 1068:0.66945621 1982:0.64714185 5901:0.6289097 8119:0.27313708 8903:0.45113237 16865:0.53400164 
1 0 253:0.29147823 1528:0.34911221 1801:0.30674731 1982:0.32357093 3945:0.34911221 4588:0.26541338 5995:0.34911221 6636:0.14681366 7176:0.20552823 8373:0.26864031 8903:0.22556619 9588:0.17182328 10250:0.20745154 14976:0.17254968 16422:0.20894419 
1 0 5250:0.31926071 6152:0.40396796 6636:0.15454069 7191:0.18703409 7319:0.26507021 8119:0.14375636 8180:0.26262179 9003:0.34060097 9768:0.25087739 9775:0.42530823 9849:0.18480597 13147:0.2028433 14153:0.36748653 16074:0.22858878 16448:0.35234537 
1 0 7112:0.63961594 13589:0.23398807 16885:0.54806492 
1 1 6324:0.99746345 14777:0.4835617 16374:1.5371219 16542:0.52314512 16898:0.34368806 
0.4523047143938027 0 432:0.90230441 2274:2.0202141 6786:1.7911414 
1 0 140:0.34586985 2874:0.88700775 3613:0.26646989 9067:0.54824224 9371:0.34728433 9658:0.27903351 13147:0.27528733 14807:0.34047646 
1 0 407:0.34614626 3289:0.34614626 4548:0.30155164 4687:0.3888268 6908:0.25804224 6928:0.15919003 7090:0.19600777 7176:0.2163455 9150:0.25485147 9614:0.24718243 9658:0.20560364 12407:0.31586394 13351:0.30155164 14777:0.17815431 14836:0.34614626 
1 0 7:0.24049005 1044:0.24992905 1398:0.23181872 4381:0.2232318 5071:0.32679233 5074:0.25804224 6453:0.21994125 8152:0.23385633 8520:0.24290108 8718:0.224376 8963:0.18086661 9898:0.23385633 9902:0.17076708 12978:0.18507938 14178:0.25915032 16867:0.20520033 16898:0.25324383 
1 0 373:0.098267166 1799:0.17366669 2697:0.18198262 4173:0.20694534 4285:0.21774017 4391:0.26466867 4467:0.21686541 5992:0.2354515 6636:0.1012508 6928:0.31289075 7176:0.1417436 9150:0.16697165 9588:0.11849881 9658:0.13470583 11476:0.17206255 12010:0.24705399 12419:0.15321622 12515:0.36827699 13807:0.26466867 14901:0.10775963 16729:0.10837213 
0.07465702392158691 0 10267:2.5682087 12268:4.0404282 
0 1 3569:0.86656477 5293:0.7496633 6928:0.43208723 7799:0.92448836 8755:0.99746345 11570:0.83279495 
1 0 38:0.35818708 373:0.18998319 991:0.41927313 8119:0.18209138 9944:0.2383671 10376:0.20121743 10680:0.34984287 11199:0.4314279 13223:0.2903442 14733:0.37886408 14976:0.23006624 
1 0 432:0.4511522 9898:0.55540878 10846:0.46959047 14518:0.62372675 16300:0.42085398 16472:0.45186854 
1 0 571:0.32679233 1249:0.3888268 2693:0.40396796 6928:0.15919003 7889:0.33558465 8564:0.19533729 9727:0.2663385 9849:0.18480597 10425:0.22380079 10904:0.25804224 11996:0.2731834 12300:0.35234537 13529:0.42530823 14076:0.25485147 14130:0.30966483 14178:0.25915032 
1 0 6656:1.0813416 6928:0.60492212 8770:0.63585844 
1 0 373:0.40710683 772:0.68357422 5291:0.92448836 9658:0.55806702 11476:0.71283057 12419:0.63475289 
1 0 373:0.17810924 2133:0.2156871 3631:0.3456488 3681:0.47971196 4327:0.26997852 5500:0.29568452 6187:0.17517136 6928:0.37807633 8370:0.24863832 8895:0.35240684 13147:0.24087642 14901:0.19531434 15318:0.27295527 16729:0.19642449 
1 0 1250:0.42430054 2889:0.27763213 5282:0.47191894 6533:0.45258706 7915:0.35381664 8048:0.45258706 8951:0.55112044 9742:0.16306547 10080:0.24777262 11529:0.47191894 12012:0.45698387 14776:0.3035146 
1 0 1328:0.51169275 1806:0.4314279 2035:0.42507389 2693:0.51169275 5365:0.24294033 6790:0.31423737 6928:0.40328142 7727:0.39224212 8584:0.20401805 10376:0.20121743 10528:0.38863764 14842:0.3357556 16264:0.27466955 
1 0 2413:0.49673411 2686:0.42307088 3613:0.37305785 6636:0.29362732 6928:0.30246106 12429:0.6576779 16553:1.3964488 
0 0.1718578078770253 1487:3.4140467 9611:3.6938546 
1 0 587:0.76753913 5489:0.76753913 5766:0.60659534 9902:0.32445745 15196:0.6576779 16904:0.34461274 
1 0 6965:3.1045271 
1 0 2337:0.63761083 3631:0.27651904 4332:0.55159071 5428:0.50604315 6928:0.30246106 9517:0.56829611 9916:0.42853672 10904:0.49028026 14506:0.39064691 15275:0.4923856 
1 0 5074:0.98056052 5471:1.1881581 7915:0.91992327 10376:0.60365228 
0.5131385187116898 0 4406:2.2315207 5902:0.69150513 9588:0.57274425 16300:0.56113864 
0.5419729487852716 0 3297:3.0007074 10376:1.5091307 
1 0 5633:0.65132415 5887:0.597889 7743:0.67160993 7931:0.32404704 8564:0.33740078 8645:0.386565 14776:0.35869908 
1 0 7743:1.2312849 11700:1.0348424 14842:0.839389 
1 0 985:0.6576779 2005:0.60659534 6928:0.30246106 8770:0.31792922 10454:0.69822441 11203:0.68280935 11751:0.76753913 16546:0.54067078 
1 0 4627:1.2792319 6790:0.78559343 10080:0.53684067 12002:0.66581335 12419:0.74054504 
0 0.5927014887204407 1281:0.7258605 5088:1.2312849 8756:0.87958267 9163:0.4482507 9742:0.35330851 12167:1.1637074 
0.7084949159524725 0 3631:0.21270695 5293:0.40366485 6453:0.3214526 6804:0.20481048 7915:0.35381664 9198:0.43715086 9742:0.16306547 10025:0.52523796 12739:0.48377669 13589:0.21598899 14709:0.29479701 
0 1 8:1.2522413 
0.4240116088715432 0 32:2.5584638 4453:1.8653166 9443:1.4284557 
1 0 693:0.57720403 3706:0.86656477 8269:0.3707489 9295:0.54824224 11820:0.49873172 
0.4119839482921693 0 587:2.5584638 1554:2.3881886 
1 1 2433:0.31737473 3631:0.12569047 4032:0.20256889 4309:0.2989445 5863:0.23468571 9163:0.12225019 9742:0.19271373 11535:0.2989445 12785:0.27572515 14589:0.84668921 14709:0.17419824 15155:0.26743781 15263:0.73462331 16898:0.10935529 
1 0 5228:0.75392801 6928:0.86417446 8083:1.1544081 10034:0.88700775 15875:0.44295433 16264:0.58857761 
1 0 4436:0.82209738 9742:0.52996277 10211:0.52110418 12724:1.0101071 13192:0.79701354 14559:0.89557071 
0.7394180973594376 0 5277:0.615482 7308:0.41271662 7931:0.44556468 8241:0.45775198 10991:0.87278052 13535:1.0101071 16418:0.75824417 
1 0 1799:1.0072668 5487:0.79399651 6187:0.56054835 7127:0.8710326 14976:0.69019872 
1 0 5365:0.72882098 8474:1.2269893 8584:0.61205416 16663:0.96455198 
1 0 257:0.80932316 6804:0.53250725 8034:0.99346822 16418:1.2131907 16420:1.2578194 
1 0 6292:0.87875885 16867:1.2996021 
1 0 8:0.93918094 6231:1.1617173 10376:0.75456535 
0.9231142297959493 0 1496:0.55551278 4750:0.52476431 5260:0.49453622 6928:0.30246106 8770:0.31792922 9902:0.32445745 11711:0.6576779 16542:0.36620158 
1 0 5004:1.0002358 5104:1.3896111 
1 0 8770:1.5896461 
1 0 64:0.62090542 1241:0.4989814 1846:0.69822441 4812:0.71645657 7099:0.6576779 8269:0.51904847 12528:0.69822441 16112:0.73877092 16724:0.49673411 
1 0.4226527976176051 5561:1.7911414 8570:1.3604498 14196:1.5940271 
1 0 1799:1.4389526 6357:0.51157811 7308:0.47167613 
1 0 140:0.16140593 479:0.21253694 1389:0.23274147 2749:0.23274147 3631:0.092173014 5226:0.22315207 6292:0.087875885 7308:0.11005776 9002:0.15888901 9616:0.21571395 9742:0.14132341 9980:0.16075866 10194:0.12267511 10198:0.23274147 10220:0.14724316 10376:0.10060871 11873:0.20963657 12978:0.11721694 13661:0.15332054 13788:0.17492144 14901:0.10416765 15275:0.16412853 15341:0.19260904 16880:0.15950065 16898:0.08019388 
1 0 1455:0.69878855 1563:0.67399482 3641:0.57367619 6187:0.31141575 7168:0.58638845 9163:0.2988338 13818:0.6816607 15207:0.63144013 
1 0 2574:0.66945621 2697:0.5277496 2988:0.66945621 4481:0.66945621 5058:0.41296127 6707:0.59407903 8912:0.80808564 9742:0.21198511 10200:0.57294812 
1 0 5260:0.82422703 9944:0.59591776 12437:1.0481828 
1 0 3631:0.6912976 6928:0.75615265 10194:0.92006335 11990:1.1657824 
1 1 8564:1.2371362 8730:1.2680634 15875:1.0335601 
1 0 4299:0.23398295 4882:0.25815428 6284:0.40404282 6804:0.13312681 7308:0.16508665 8453:0.25952423 9163:0.13447521 9742:0.10599255 9849:0.17556567 11859:0.26864031 14709:0.19161806 14777:0.16924659 16898:0.12029082 
1 0 6928:0.75615265 8770:0.79482306 
1 0 1044:0.1187163 1554:0.17911414 1927:0.16178546 2697:0.1319374 2823:0.13695417 2842:0.12205458 3631:0.06912976 4436:0.16441948 4982:0.1745561 5766:0.15164883 6012:0.16736405 6187:0.070068544 7191:0.088841194 10194:0.092006335 10200:0.14323703 10410:0.13989874 11545:0.14207403 11596:0.17911414 12959:0.16736405 13209:0.14207403 13657:0.091550395 13788:0.13119108 14012:0.15164883 14559:0.17911414 14615:0.15940271 14731:0.18469273 14901:0.078125734 14992:0.13989874 16317:0.14851976 16663:0.120569 
1 1 252:0.52491158 5491:0.55056947 9902:0.40557181 12716:0.71618515 16264:0.51500541 16300:0.42085398 16867:0.48735078 
1 0 8770:1.0597641 16652:2.0449821 
1 0 5104:1.0422084 16074:1.0857967 
1 0.2836399348724788 1241:0.83163566 2104:1.1637074 3631:0.46086507 5260:0.82422703 7931:0.59408624 13718:1.2792319 
1 0 8:0.93918094 3200:1.8469273 6012:1.6736405 8873:1.5003537 
1 0 6187:0.23356181 6636:0.24468943 6928:0.25205088 8453:0.43254039 9643:0.39279672 13147:0.64233711 14842:0.4196945 15875:0.25839003 16638:0.33648376 16740:0.37027252 
1 0 9563:1.0025607 9742:0.42397022 
1 0 3366:1.1637074 6959:1.3468094 9742:0.35330851 10211:0.69480557 
1 1 6012:0.60859655 6891:0.65132415 6990:0.49801516 7116:0.58831077 9653:0.60859655 14291:0.47705846 
1 0 464:0.38376957 1044:0.2374326 3685:0.28192547 7308:0.16508665 9168:0.24514013 9742:0.10599255 10080:0.1610522 10640:0.28192547 12072:0.40404282 12419:0.22216351 12479:0.2638748 13053:0.28647406 15352:0.34911221 16740:0.22216351 
1 0 7:0.078781224 8:0.064771099 2133:0.05949989 2697:0.090991311 4366:0.13932511 4812:0.12352699 5930:0.1273743 6292:0.045453044 6847:0.089018719 7743:0.1273743 8269:0.17898223 8441:0.12352699 8770:0.10963077 9978:0.13932511 10080:0.055535242 10493:0.095101846 10522:0.088111068 10636:0.26466867 10846:0.064771099 11485:0.1273743 11850:0.13932511 12419:0.076608108 12528:0.12038352 13248:0.13932511 13515:0.13932511 13657:0.063138204 14312:0.11157618 14639:0.1099329 14728:0.1273743 16112:0.1273743 16341:0.063989803 16374:0.061838238 16898:0.12443878 
1 0 301:0.7758049 1097:1.3479896 1773:0.82085658 9163:0.2988338 14172:1.3797898 
1 0 114:0.23881886 999:0.25584638 1883:0.19431882 3400:0.22760312 4032:0.14855052 4647:0.21253694 4719:0.24625697 5496:0.20004716 5981:0.18517093 6187:0.093424725 6804:0.088751209 6978:0.11936822 7430:0.20963657 7452:0.22760312 8531:0.24625697 8757:0.16012372 9588:0.11454885 9759:0.17395518 9849:0.11704378 9902:0.10815248 10044:0.17492144 10250:0.13830103 10376:0.10060871 11176:0.24625697 12790:0.16140593 13303:0.23881886 
1 0 257:0.57808797 8449:0.69456866 9742:0.30283587 9849:0.5016162 10734:1.0235094 11983:0.85734498 
1 0 3697:2.1571395 5863:1.7210286 
1 0 6357:0.59684112 6636:0.48937886 14076:0.80702966 15875:0.51678006 16275:1.0109922 
0.4380874688946471 0 5365:0.91102622 10048:2.0202141 14992:1.3989874 
1 0 2686:0.60438697 5801:0.73006314 8730:0.54345576 12012:0.84868432 13657:0.52314512 13959:0.5845532 14930:0.68095292 
1 0 257:0.67443596 6905:0.89000273 9563:0.83546725 16880:0.79750326 
1 0 8770:1.0597641 
0 1 3631:0.92173014 6453:1.3929613 16459:1.095022 
1 0 6338:0.67698637 11906:1.0025607 14045:0.80581429 
1 0 8473:1.6632713 
1 0 6:0.39605268 2019:0.33900828 6231:0.30979128 7011:0.32825707 8584:0.20401805 9179:0.49251395 9658:0.52086255 10370:0.28134178 12002:0.26632534 13589:0.18719046 14076:0.32281186 16638:0.26918701 
0.5850816960523502 0.2244562376147841 4571:3.1880542 
1 0 1398:0.55056947 3631:0.3456488 4604:0.95942391 4904:0.76686828 8564:0.46392607 9742:0.26498139 10243:0.3901893 
0 1 1414:1.4437841 5365:1.2147016 
1 0 2305:0.45965892 4327:0.35997136 4882:0.43025714 6292:0.21968971 7308:0.27514441 11538:0.55788017 
1 0 373:0.23747898 991:0.52409141 4899:0.53928488 5365:0.30367541 5863:0.43025714 6292:0.21968971 8152:0.37027252 9163:0.22412535 11700:0.51742119 
1 0 252:0.19087694 2292:0.34888142 8683:0.36731166 10370:0.19182394 10904:0.22285466 11165:0.20769595 13217:0.27279159 13373:0.28586804 14346:0.28222974 14515:0.31036788 16229:0.60859655 16697:0.18727469 
1 0 252:0.074987368 442:0.096548353 568:0.088310039 605:0.083270174 876:0.096548353 1042:0.12793867 1683:0.092197959 3751:0.19564881 5293:0.093707912 6109:0.11385908 6292:0.047076367 6357:0.063947263 6804:0.04754529 7778:0.14430101 8119:0.048774478 8330:0.10608554 8445:0.14430101 8584:0.054647693 8730:0.06793197 9163:0.096053721 9742:0.037854484 10083:0.12793867 10243:0.055741329 10376:0.10779505 11927:0.12468293 12002:0.071337145 12853:0.075359406 13207:0.12193024 13222:0.10716812 13589:0.050140301 14730:0.078880264 14852:0.14430101 15124:0.29549502 15875:0.055369292 15917:0.071639815 16459:0.058661891 16898:0.042961007 
0.5911537471087559 0 2035:0.53134236 2305:0.45965892 4150:0.63961594 5104:0.34740278 6187:0.23356181 9902:0.27038121 11459:0.55788017 16472:0.30124569 16795:0.48579705 
0.4437377559258199 1 3098:1.0626847 5062:0.7087025 7015:1.022491 8793:1.3468094 9231:0.96304522 10243:0.5202524 
1 0 51:0.13745862 605:0.18652519 1272:0.24263814 1773:0.29550837 2949:0.32323426 4308:0.30701565 5365:0.1457642 6692:0.21626831 6699:0.28658263 8645:0.1700886 8963:0.13745862 9028:0.32323426 9163:0.10758017 9588:0.27491724 9742:0.084794043 10250:0.16596123 10358:0.18159588 11988:0.17232382 12411:0.25156388 14763:0.19447922 14776:0.15782759 
1 0 124:1.4775418 1901:1.2578194 13369:1.2131907 
1 1 373:0.35621848 2464:0.83682026 5365:0.45551311 5863:0.64538571 9944:0.44693832 11526:0.68022489 15875:0.38758504 
1 0 2281:0.49506585 3427:0.56900779 8168:0.55788017 9002:0.39722253 14623:0.42803479 15875:0.25839003 16346:0.46987578 16472:0.30124569 16898:0.2004847 
1 0 610:0.36278661 1214:0.27036698 2105:0.30170056 5058:0.27530751 7178:0.30979128 8185:0.37590063 8373:0.35818708 8376:0.39605268 8548:0.40899642 9849:0.23408756 14889:0.36772714 
1 0 5142:0.46987578 8119:0.22761423 8584:0.51004513 10211:0.34740278 12340:1.0109922 15564:0.6734047 16422:0.34824031 16898:0.2004847 
1 0 1323:0.4989814 1423:0.80808564 3125:0.71645657 5691:0.4989814 7191:0.35536478 8370:0.39782131 9658:0.39064691 9944:0.35755066 16436:0.46964662 
1 0 13577:4.5996163 
1 1 3288:0.51496631 10846:0.28897875 11935:0.47191894 12407:0.4616473 12790:0.37247523 14823:0.38741031 16282:0.38210316 16501:0.37247523 
1 0 1485:1.0072668 5104:0.83376668 8645:0.850443 12168:1.1365922 14981:0.73120196 
1 0 14889:1.1031814 16271:0.83780722 
1 0 1214:1.3518349 5284:2.5584638 5969:1.421048 
1 0 3631:0.30724338 6357:0.39789408 6663:0.57985062 9773:0.6477294 11545:0.63144013 12956:0.6477294 13577:0.51106848 14506:0.43405213 
1 0 2611:1.7070234 3631:0.6912976 6453:1.0447209 6647:0.91102622 
1 0 3613:0.37305785 3631:0.27651904 6338:0.33849319 9944:0.35755066 13589:0.28078569 14776:0.39456899 16407:0.39064691 16729:0.62855836 
0 0.3718697590942204 15083:3.2357093 16341:1.8557043 
1 0 3631:0.55303808 8564:0.74228171 8649:0.88345895 10243:0.62430288 14901:0.62500587 
1 0 3134:2.3274147 7463:1.6484541 9486:2.4625697 
1 0 5522:0.29424952 6804:0.20481048 8770:0.73368282 10358:0.34922285 12668:0.42430054 13589:0.21598899 16898:0.3701256 16905:0.9332236 
1 0 5467:1.8795031 10194:1.2267511 
1 0 257:0.44962398 1022:0.85282126 4285:0.35080361 6453:0.46432042 6647:0.40490054 6804:0.29583736 6928:0.33606785 16374:0.39851309 
1 0 6804:0.38036232 7931:0.50921678 8730:0.54345576 9595:0.66852272 12544:1.0235094 15875:0.44295433 
1 0 1202:0.92448836 6231:0.66383846 7308:0.47167613 12129:1.0235094 15875:0.44295433 16386:1.0964845 16745:1.1544081 
1 0 257:0.19269599 568:0.23549344 1414:0.41250975 2574:0.63757734 3631:0.13167573 4332:0.26266224 6187:0.26692779 8963:0.32728243 10244:0.24988777 10425:0.40497286 12419:0.4231686 16898:0.22912537 
1 0.4079475618563299 8449:2.4309903 
1 0 1250:1.1031814 2747:1.2942837 3394:1.0072668 14057:1.5350783 
1 0 1034:0.47843623 2161:0.84051883 7090:0.53202108 8119:0.39019582 13452:0.58588211 13455:0.84051883 16880:0.68357422 
0.4471142148685203 0 4834:0.94619047 8739:1.4775418 9849:0.70226268 14878:1.5350783 15875:0.62013607 
1 1 6292:0.87875885 13452:1.3670583 13685:1.7121391 
0.1327362273768372 0 15086:8.0808564 
1 1 6453:1.3929613 6647:1.2147016 9944:1.1918355 
1 0 6292:0.52725531 6928:0.60492212 13657:0.73240316 13788:1.0495286 14901:0.62500587 
0.1196165832312448 0 10721:1.7911414 14045:1.0072679 16271:1.047259 
1 0 2045:3.347281 
1 0 13274:4.4835442 
0.4149183039476498 0 252:0.46658807 257:0.44962398 8649:0.49081053 9889:0.79606285 12023:0.82085658 13468:0.85282126 14359:0.63144013 
0.7313957304641328 0 669:2.1571395 5365:1.2147016 8770:1.0597641 
1 0 2168:0.59041472 5277:0.37875815 5902:0.31915621 6357:0.27546513 6647:0.28031576 9742:0.16306547 9944:0.55007793 13192:0.49046987 14806:0.39510903 16697:0.63385281 
1 0 2334:2.7390834 6928:1.5123053 
0 1 2334:1.8260556 16867:1.2996021 
1 0 13526:5.6385094 
1 0.8213750185063513 51:0.2643435 2133:0.26546105 2955:0.56828533 5282:0.47191894 5925:0.24484743 6187:0.21559552 10194:0.28309642 12312:0.51496631 14743:0.40596123 16333:0.45698387 
1 0 101:0.20029207 373:0.1838547 2105:0.14598414 3328:0.26067279 3715:0.2028741 5114:0.22026108 5184:0.26067279 6303:0.14739713 6804:0.17177653 6823:0.25007508 7011:0.15883406 7308:0.10650751 7640:0.23111502 8453:0.16743499 8584:0.098718413 9163:0.0867582 9861:0.24759327 12711:0.17024181 13331:0.2383132 13822:0.2383132 14718:0.11260645 15338:0.24759327 16339:0.20568091 16374:0.11569735 16755:0.23111502 16762:0.12997005 16898:0.077606981 
1 1 1034:3.3490536 
1 0 6:0.39605268 460:0.36772714 3631:0.18434603 5925:0.21220111 6187:0.18684945 6338:0.22566212 6369:0.46548294 8152:0.29621802 8584:0.20401805 9742:0.14132341 10243:0.20810096 11231:0.41927313 14289:0.51169275 
1 0 4381:0.84828082 8322:1.6161713 8776:1.3389124 15275:0.9847712 16904:0.68922549 
1 0 15934:0.93953986 16341:0.53020122 
1 0 1909:0.74384023 4393:0.74384023 12384:0.82085658 16898:0.26731293 
0.2414713479553299 0 460:0.61287856 10136:0.85282126 10269:1.5516098 16374:0.79702618 16459:0.36500732 
1 0.1108873169908706 6154:1.5350783 8292:1.1031814 10267:1.0272835 12947:1.0616535 14714:1.0680033 
0 1 5098:1.6736405 7912:1.7911414 14776:0.98642247 
1 0 1398:0.62922225 3927:1.055387 14718:0.4986857 15187:1.1544081 16264:0.58857761 
1 0.5451328782914957 1882:1.1659129 6729:0.99346822 9850:1.6161713 12066:1.2578194 13589:0.56157137 
1 0 2472:1.2312849 5058:0.68826878 5863:0.86051428 16472:0.60249138 
1 0 64:0.31045271 609:0.20459362 643:0.40404282 1323:0.2494907 3290:0.22699485 3968:0.35822828 5491:0.22022779 9188:0.38376957 11231:0.31445485 11878:0.32357093 12034:0.31880542 13944:0.27579535 15121:0.38376957 15917:0.20059148 16459:0.16425329 16542:0.18310079 16762:0.20145357 
1 0 5678:3.2357093 14709:1.9161806 
1 0 16459:1.095022 
1 0 513:0.31840574 2027:0.36951628 7328:0.51496631 9223:0.52523796 9750:0.41329279 12232:0.55112044 14347:0.9232946 16436:0.72253325 16898:0.3701256 
0.4262052012405807 0.1794110585327315 2015:2.5584638 2305:1.8386357 14471:2.3274147 
0 0.2662001445612165 1832:2.3274147 10425:1.417405 14718:1.1636 
1 0 373:0.10177671 1247:0.1606192 3321:0.24936586 3794:0.28860201 3880:0.57720403 5233:0.22461061 5865:0.22771815 5925:0.11367916 7432:0.28860201 7557:0.2390915 8544:0.26384676 8584:0.10929539 8730:0.13586394 8770:0.2270923 8963:0.12273091 11593:0.28860201 12419:0.31737645 14479:0.22461061 14718:0.12467142 14730:0.31552106 16501:0.17293493 
0 0.5257379337913919 12365:1.5350783 13959:0.81837447 14076:0.96843559 16147:1.4329131 
1 1 821:0.29351847 2105:0.53241275 5691:0.58703694 6231:0.27334525 6804:0.15661978 9163:0.31641226 11272:0.71364158 12671:0.40165256 16472:0.42528804 
1 1 258:0.60659534 740:0.71645657 975:0.73877092 1398:0.44045557 3179:0.71645657 3861:0.76753913 5540:0.61349463 9393:0.5110442 14718:0.34907999 16230:0.80808564 
0.8243605271655746 0 2428:1.0626847 6956:1.0785698 9588:0.57274425 16300:0.56113864 16459:0.54751098 
1 0 513:0.15920287 1489:0.29520736 2133:0.13273052 2305:0.21215027 3148:0.2222412 3429:0.27556022 4327:0.16614063 4795:0.24188834 5282:0.23595947 6369:0.26854785 6456:0.26261898 7823:0.29520736 8449:0.18699925 9104:0.26854785 10170:0.31080217 10846:0.14448938 10872:0.26854785 11281:0.28414266 13703:0.24890071 13726:0.31080217 13856:0.26854785 14386:0.31080217 14732:0.26854785 14776:0.1517573 15829:0.17632111 
1 0 666:0.32357093 3486:0.38376957 4557:0.36938546 6978:0.17905234 7191:0.17768239 8584:0.15301354 8960:0.38376957 8963:0.17182328 9314:0.40404282 12648:0.38376957 14726:0.28891357 14938:0.35822828 15917:0.20059148 16542:0.18310079 16743:0.36938546 16791:0.34911221 
1 0 16898:0.8019388 
1 0 740:0.59704714 3410:0.6734047 5070:0.39424603 5865:0.53134236 7223:0.45965892 7931:0.29704312 9835:0.61564244 11158:0.6734047 13446:0.6734047 15338:0.63961594 
1 0 234:0.15339261 1034:0.081684234 1214:0.1978295 1349:0.18018803 1447:0.1222635 2105:0.11037825 2288:0.18720467 3749:0.18720467 3836:0.18018803 3934:0.15551484 4397:0.1747455 6636:0.071616418 7160:0.15551484 7214:0.15783948 7510:0.16653886 8695:0.1747455 10370:0.10292992 11151:0.16653886 12460:0.14489732 12711:0.12871942 12853:0.10292992 13051:0.15551484 13920:0.163282 14836:0.16040924 14837:0.18720467 14901:0.076220228 15361:0.1747455 16302:0.14963284 16374:0.087478483 16459:0.080123558 16501:0.1181019 16606:0.26374184 16740:0.10837245 
1 0 2986:0.9715941 6357:0.59684112 9742:0.35330851 
1 0 42:1.6161713 373:0.56994956 1185:1.4775418 11966:1.5350783 
0.44659926646171 0 7535:1.7070234 12307:2.0202141 
1 0 1247:0.099940833 2392:0.17957459 2492:0.31842514 2812:0.16417132 3434:0.17957459 3873:0.17056425 4285:0.070160722 5211:0.15516098 5715:0.11866703 6303:0.10154024 6804:0.059167472 7223:0.12257571 7337:0.099033677 7732:0.17056425 7931:0.079211499 8730:0.084537562 9132:0.13074737 9588:0.1527318 9602:0.16417132 10053:0.22176951 11535:0.29230129 12195:0.12954588 12648:0.17056425 13338:0.15921257 14488:0.17957459 14986:0.16417132 15443:0.16417132 15917:0.08915177 16374:0.079702618 16898:0.21385035 16904:0.07658061 16905:0.26959793 
0.3374023163475388 0 1291:0.90111796 2530:1.1380156 9371:0.8103301 12365:1.2792319 14718:0.58179998 16477:0.7744782 
0.1441666014623799 0 16876:3.6938546 
1 0 1034:0.2790878 2105:0.3771257 4381:0.35345034 5062:0.35435125 5299:0.6734047 10044:0.43730359 11041:0.49030265 12129:0.59704714 14347:0.50011791 
1 0 373:0.35621848 6303:0.57116387 6978:0.44763084 8185:0.70481367 10493:0.68948838 12051:0.85351168 14730:0.55216185 
1 0 134:0.22578379 610:0.098941802 1247:0.081769772 2356:0.13432199 3026:0.12171931 3708:0.10251835 4285:0.057404227 4293:0.14692466 5228:0.28786342 5233:0.22869443 6231:0.084488531 6731:0.13026483 6804:0.04840975 7223:0.10028922 8241:0.066582106 10199:0.11766215 10220:0.08031445 10250:0.15087385 12377:0.14692466 12982:0.095954473 13018:0.11434722 14410:0.11592924 14708:0.077116438 14718:0.063469089 14730:0.08031445 14733:0.20665313 14777:0.061544216 15875:0.056376006 16168:0.14692466 16461:0.11766215 16638:0.073414639 16898:0.043742117 16904:0.18797059 
1 0 8:0.28897875 2105:0.34811603 3313:0.49046987 9168:0.37713866 12613:0.37555256 13913:1.1808294 13914:1.1808294 14743:0.40596123 16074:0.33409129 16374:0.27589368 
1 0 969:2.1253694 1398:1.4681852 11027:1.7694226 
0 0.3160289503170277 140:1.6140593 3747:2.4625697 
0.4042419997525292 0 513:1.0348187 5691:1.2474535 6357:0.89526169 11216:1.9188478 
1 0 1606:0.48772096 2958:0.37276111 3339:0.4059258 9163:0.19210744 10269:0.49873172 11996:0.3707489 12479:0.376964 13231:0.6615527 13541:0.52769352 15875:0.22147717 16898:0.17184403 
0.8349381342656779 0 568:0.54948469 1487:0.75867705 7011:0.54709511 7337:0.49516839 8202:0.68989492 12978:0.39072314 13115:0.64203015 14777:0.37610354 
1 0 51:0.2290977 173:0.47763771 651:0.4314279 3781:0.4314279 6453:0.27859225 8827:0.36278661 10846:0.25044825 11526:0.36278661 12601:0.45520623 14777:0.45132425 14807:0.31777803 16472:0.24099655 16898:0.16038776 
1 0 8119:0.54627415 10846:0.75134475 12394:1.3656187 
1 0 4285:0.31572325 4602:0.6576779 8429:0.63761083 8730:0.38041903 8903:0.45113237 9231:0.57782713 11568:0.66945621 14776:0.39456899 16264:0.41200433 
1 0 2446:0.73877092 3251:0.73877092 4904:0.61349463 8520:0.46151205 9063:0.68280935 9980:0.48227599 10243:0.31215144 13965:0.52186555 16014:0.71645657 
1 0 647:0.49780142 6877:0.62160434 7535:0.52523796 8241:0.28169352 8748:0.39510903 9168:0.37713866 9768:0.36666695 12192:0.39926805 14718:0.26852307 16496:0.41077049 
0.7766038054588963 0 1247:0.2998225 4698:0.53872376 5925:0.21220111 6338:0.22566212 6823:0.25841092 6978:0.23873645 8231:0.51169275 9902:0.21630497 13008:0.51169275 13441:0.51169275 13965:0.34791037 16496:0.35600109 16895:0.39605268 
0.2047061630254857 0 373:0.40710683 11555:1.1544081 11601:1.1544081 14730:0.63104211 14901:0.44643277 
1 0 2964:1.3964488 6357:0.71620935 8119:0.54627415 12002:0.79897602 14776:0.78913797 
0.8411113362303255 0 1034:0.33490536 1044:0.47486519 6578:0.55159071 6804:0.26625363 7308:0.33017329 7352:0.64714185 8119:0.27313708 8649:0.44172948 
1 0.4598932957903266 1683:1.4751673 8637:0.99746345 14045:0.57558164 14602:0.99746345 16422:0.59698339 
0.3826758680276174 0.284647614580933 5073:1.3797582 5825:2.3274147 6724:1.21078 
1 0.2634124369457622 373:0.56994956 4285:0.6314465 10053:0.99796279 14045:0.80581429 14291:1.0495286 
1 0 5522:0.54646339 7931:0.50921678 
1 0 772:0.34178711 1414:0.30938231 2638:0.52769352 5058:0.29497234 5522:0.27323169 5969:0.30451029 6187:0.20019584 7931:0.25460839 12613:0.69745476 13661:0.32854402 14777:0.24178085 14930:0.34047646 16501:0.34586985 
1 0 772:0.3190013 1414:0.28875682 2638:0.49251395 5058:0.27530751 5522:0.25501625 5969:0.28420961 6187:0.18684945 7931:0.47526899 12613:0.65095777 13661:0.30664109 14777:0.22566212 14930:0.31777803 16501:0.32281186 
1 0 1743:1.5337366 5250:1.5164883 16271:1.047259 
1 0 5698:1.11919 6056:0.94619047 16271:0.83780722 
0.4063893385829425 0 2413:0.70962016 4285:0.45103321 7191:0.50766397 9742:0.30283587 9768:0.68095292 
1 0 568:0.61817028 6056:0.59136904 8756:0.659687 9849:0.43891418 14600:0.75824417 15343:0.659687 16374:0.44832722 16729:0.39284898 
0.1602078515306892 0 568:0.98907244 2746:1.0956333 3657:1.3656187 6056:0.94619047 8756:1.0554992 
1 0 605:0.097148536 821:0.20790892 2133:0.1437914 2958:0.10872199 3394:0.10492362 3666:0.14225195 5960:0.11412847 6187:0.058390453 6804:0.055469505 7099:0.13701623 7101:0.15990399 7176:0.085636761 7191:0.074034329 7308:0.068786103 7782:0.1081351 9132:0.12257566 9163:0.11206267 9742:0.088327128 9916:0.089278484 10243:0.1300631 10250:0.17287628 11766:0.097148536 11832:0.46987578 12978:0.073260588 13223:0.090732562 13976:0.10214172 14763:0.10129126 14983:0.086850696 16459:0.068438872 16795:0.12144926 16811:0.12637403 16898:0.25060588 16904:0.071794321 
1 0 605:0.097148536 821:0.20790892 2133:0.1437914 2958:0.10872199 3394:0.10492362 3666:0.14225195 5960:0.11412847 6187:0.058390453 6804:0.055469505 7099:0.13701623 7101:0.15990399 7176:0.085636761 7191:0.074034329 7308:0.068786103 7782:0.1081351 9132:0.12257566 9163:0.11206267 9742:0.088327128 9916:0.089278484 10243:0.1300631 10250:0.17287628 11766:0.097148536 11832:0.46987578 12978:0.073260588 13223:0.090732562 13976:0.10214172 14763:0.10129126 14983:0.086850696 16459:0.068438872 16795:0.12144926 16811:0.12637403 16898:0.25060588 16904:0.071794321 
1 0 1228:1.0101071 4400:0.83682026 7223:0.68948838 7345:0.78613712 8584:0.38253385 9768:0.5958338 16472:0.45186854 
1 0.8679704140331508 1559:0.60859655 4299:0.42542355 5450:0.73462331 6636:0.26693392 6804:0.24204875 9168:0.44570933 10080:0.29282218 11545:0.51663283 14901:0.28409358 
1 0 10865:1.8943204 12944:2.1922597 
1 0 1271:0.24330858 1642:0.36537661 4586:0.39803143 5598:0.35422824 6647:0.20245027 8796:0.33699741 9742:0.1177695 12790:0.26900989 13372:0.29848923 14821:0.42641063 16697:0.22889129 
1 0 3250:0.69776285 4285:0.28702114 6804:0.24204875 7308:0.30015754 8048:0.53487562 9742:0.19271373 10041:0.63474947 10376:0.2743874 12429:0.597889 14506:0.35513356 16740:0.40393366 
0 0.2392479764396905 1414:0.61876462 5243:1.6237032 7308:0.47167613 9742:0.30283587 10680:0.7496633 
0.9336336671631793 0 647:0.7190465 9614:0.52182957 10243:0.34683494 13345:0.60868519 13577:0.51106848 14901:0.34722548 
0.07688577020405074 0 6729:0.99346822 7915:0.91992327 8409:1.1031814 12853:0.84402534 14983:0.83376668 
0 1 3751:0.78259525 5073:0.59132494 6187:0.40039168 7308:0.47167613 14709:0.54748017 16867:0.55697233 16901:0.95636601 
1 0 6928:0.75615265 10243:0.7803786 16264:1.0300108 
0.5297697545109212 0 3376:1.9188478 9742:0.52996277 14175:1.2418353 14196:1.5940271 
0.7870254142282881 0 6724:0.72646801 8770:0.63585844 16638:0.80756103 
0 0.8281421921229747 389:0.7758049 1323:0.55442377 2157:0.57985062 3326:0.79606285 8180:0.55442377 11459:0.74384023 11683:0.82085658 
0.6281183773600243 0 1034:0.47843623 5522:0.54646339 8645:0.60745929 9643:0.6733658 13589:0.40112241 14901:0.44643277 
1 0 373:0.31663864 1123:0.60074531 1398:0.48939508 5902:0.46100342 6928:0.33606785 8792:0.7190465 16638:0.44864502 
1 0 821:0.41581783 1123:0.45055898 6303:0.38077592 6386:0.53134236 8409:0.45965892 8944:0.41211352 9658:0.3255391 10680:0.43730359 11390:0.61564244 14718:0.29089999 14983:0.34740278 
1 0 2030:0.51496631 5260:0.38041248 9742:0.16306547 10194:0.28309642 12613:0.37555256 12978:0.54100127 14981:0.28123152 16414:0.49046987 
0.1938355522024074 0 876:2.7033539 12591:4.0404282 
1 0 3297:1.200283 3631:0.55303808 4381:0.84828082 14893:1.2578194 
1 0 5825:1.745561 6647:0.91102622 8101:1.5522636 
0.4643997004020468 0 5487:0.66166376 6187:0.46712363 6292:0.43937942 14976:0.5751656 16333:0.99013171 
0.2050106762320476 0 11392:4.0404282 
1 0 6187:0.56054835 6928:0.60492212 7127:0.8710326 10376:0.60365228 
1 0 16542:1.8310079 
1 1 5925:0.35366851 6928:0.33606785 7090:0.41379418 9588:0.3818295 12000:0.55959266 12681:0.82085658 13147:0.42822474 14506:0.43405213 
1 0 5487:0.66166376 12070:1.1157603 14709:0.63872686 16898:0.4009694 
1 0 16729:3.1427918 
1 0 11990:1.5543766 
1 0 3900:1.1544081 5522:0.54646339 6292:0.37661094 9742:0.30283587 10243:0.44593063 11996:0.74149781 
1 0.8891126830091294 4172:0.61564244 5062:0.35435125 6841:0.4735801 9487:0.55788017 9614:0.39137218 
0.5274871778471634 0 1265:3.2883895 2019:2.5425621 
1 0 5073:0.59132494 6453:0.59698339 6647:0.52058641 12978:0.50235832 14901:0.44643277 
1 0 5070:0.52566137 5142:0.62650104 6928:0.33606785 9068:0.82085658 11301:0.85282126 12978:0.39072314 14060:0.7758049 
1 0 51:0.24546182 252:0.29994947 3751:0.39129762 4043:0.46976993 6187:0.20019584 9393:0.36503157 10588:0.57720403 14060:0.49873172 15012:0.54824224 16341:0.26510061 
1 0 197:0.43821045 1034:0.23921811 4848:0.48772096 5101:0.54824224 5365:0.26029321 6333:0.4059258 9742:0.15141793 9849:0.2508081 10200:0.40924865 11381:0.57720403 13526:0.40275067 14842:0.35973814 15925:0.46224418 
1 0.3736886240457185 6222:1.6342675 6724:1.21078 16074:1.4477289 
0 0.5171829445583228 9742:0.52996277 11126:1.2841044 11906:1.2532009 12598:1.6736405 
1 0 1398:1.1011389 5062:1.0630538 8827:1.3604498 
1 0 2464:1.3389124 3708:1.1277019 6939:0.85483879 9163:0.53790084 
1 0 666:0.58831077 8409:0.5014461 8453:0.47186224 9163:0.24450038 12853:0.38364788 14623:0.46694704 16459:0.29864235 
1 0 6292:0.32953457 9588:0.42955819 11357:0.82209738 
1 0 136:0.18370681 149:0.18942844 200:0.20720145 252:0.10767417 1806:0.16593381 2027:0.12317209 3166:0.3580638 5819:0.15232796 6804:0.13654032 7038:0.15086235 7191:0.36447669 7463:0.12680416 8649:0.11326397 9614:0.12042221 10243:0.080038831 10358:0.11640762 10370:0.10820838 10425:0.21806231 10904:0.12571289 11548:0.18370681 14506:0.10016588 14776:0.10117153 15016:0.14571695 16374:0.64375191 16496:0.1369235 
1 0 4899:0.58831077 9588:0.31240596 10250:0.37718462 10846:0.34152034 12978:0.31968257 14718:0.31734544 16542:0.33291053 
1 0 184:0.21929689 373:0.081421366 539:0.17968848 729:0.19949269 1419:0.16369946 2133:0.098599818 2281:0.16973686 2746:0.15651905 3310:0.18790797 4302:0.16369946 5863:0.14751673 6292:0.075322187 7090:0.10640422 8473:0.14256611 8564:0.10604024 11165:0.13055174 11323:0.14528926 11983:0.171469 12785:0.17331295 13167:0.23088161 14726:0.16509347 14976:0.19719964 16663:0.13779314 16898:0.068737612 
1 0 1247:0.44973375 1323:0.4989814 1398:0.44045557 4372:0.80808564 10358:0.45398971 13589:0.28078569 16771:0.76753913 
1 0 609:0.3719884 4302:0.52086192 6338:0.30772108 8160:0.73462331 8241:0.33291053 9163:0.24450038 9742:0.19271373 11112:0.47442323 14712:0.52529739 16591:0.51663283 
0.09090835880556408 1 14712:5.7782713 
1 0 3631:0.3456488 6928:0.37807633 8370:0.49727663 10220:0.55216185 11964:0.72869558 16867:0.48735078 
0.2511413943004445 0 14410:6.3761083 
0.7820134037230898 0.2354929571220175 1123:5.4067078 
0 0.5596500998400364 2486:2.9703951 5901:3.1445485 
0 0.3065089904981145 6724:1.81617 14712:2.8891357 
1 1 6187:0.93424725 11990:1.5543766 
1 1 5491:0.62922225 6292:0.37661094 9727:0.72291879 13209:0.81185159 14901:0.44643277 
0.1347188297796141 0.1763509694273844 16526:5.5159071 
1 0 909:1.9188478 12982:1.319374 
1 1 16542:1.8310079 
1 1 8202:0.88700775 8330:0.84868432 13351:0.81849731 13675:0.73377392 14105:0.91087262 
0.4114418023405823 0 902:0.63961594 2133:0.2875828 5960:0.45651389 6231:0.3872391 6823:0.32301365 6978:0.29842056 9058:0.63961594 10080:0.26842033 12766:0.59704714 16107:0.56900779 
1 0 1214:0.2385591 3339:0.33429183 4449:0.30532263 4750:0.30868489 8051:0.36994688 9379:0.43457113 9759:0.30697974 9944:0.21032392 11041:0.34609599 14623:0.3021422 14976:0.20299962 16524:0.38686935 
1 1 8119:0.68284269 12790:1.2105445 
1 0 6338:0.84623297 6647:0.91102622 8827:1.3604498 
1 0 51:0.42955819 101:0.77613178 6978:0.44763084 8753:0.72228392 9371:0.60774757 10080:0.4026305 12419:0.55540878 
0 1 6707:0.99013171 8584:0.51004513 10376:0.50304356 13661:0.76660272 16762:0.67151191 
1 0.705539360497994 257:4.0466158 
1 0 4305:1.2942837 7191:0.71072956 8241:0.73240316 16300:0.67336637 16898:0.48116328 
1 0 608:0.6816607 3715:0.69878855 5491:0.48939508 6729:0.55192679 8119:0.30348564 8584:0.34003009 12002:0.44387557 13594:0.79606285 16762:0.44767461 
1 0 3631:0.55303808 5522:0.76504874 6978:0.71620935 14378:1.3153558 16729:0.62855836 
0.6396287946063027 0.3143462218829239 10640:5.6385094 
1 1 10080:1.0736813 12419:1.4810901 
0.6100183269421845 0 1720:1.8386357 7998:2.3881886 9902:1.0815248 
1 0 4563:1.0964845 13672:0.83279495 14097:0.95636601 16441:0.95636601 
1 0 1284:1.5350783 6724:0.72646801 
1 1 415:0.4923856 1271:0.43795544 6804:0.26625363 9052:0.66945621 13686:0.76753913 14076:0.4842178 14718:0.69815997 15907:0.80808564 
1 0 5274:1.9188478 5365:0.91102622 5467:1.4096273 10220:1.1043237 
1 0 4037:1.0883598 9320:0.96843559 13589:0.56157137 13658:1.4775418 
1 1 5682:0.92585463 9163:0.4482507 10080:0.53684067 15316:1.1637074 
1 0 5682:0.69439097 6453:0.52236047 6647:0.45551311 13071:0.66353346 14945:0.62660044 14981:0.45700122 16111:0.78613712 
1 0.7255387798535722 1720:0.68948838 6978:0.44763084 7169:0.87278052 8457:0.61027291 8944:0.61817028 9902:0.40557181 12515:0.66750205 13192:0.79701354 
0 0.7177764279874215 4285:0.22551661 6840:0.37916198 9902:0.23175532 11129:0.54824224 11323:0.36322315 12978:0.25117916 14269:0.46976993 14506:0.27903351 16300:0.24048799 16459:0.23464756 
1 0 373:0.12390208 1251:0.20724654 1281:0.18935491 5293:0.22815839 7308:0.14355361 8152:0.19318566 8180:0.21694843 8770:0.1382301 9742:0.092167438 10658:0.23982205 11165:0.19866569 11323:0.22109235 11766:0.20274477 13589:0.12208073 14709:0.1666244 14981:0.15895695 15875:0.13481219 16341:0.32273118 16898:0.20920143 
0.5759883911284568 0.7624634623940172 1034:0.4186317 6187:0.35034272 7250:1.0101071 9795:0.80892731 10716:0.87278052 12978:0.43956353 14938:0.89557071 
1 0 252:0.26245579 1485:0.31477087 4055:0.46173183 6978:0.44763084 9443:0.26783545 9916:0.26783545 10658:0.34474419 11323:0.31782026 13071:0.33176673 16114:0.44778536 
1 1 1738:1.2942837 7191:0.71072956 13672:1.1659129 14730:0.88345895 
1 0 51:0.42955819 6056:0.59136904 7191:0.44420597 8449:0.60774757 9902:0.40557181 13663:0.58085865 
0.682727021147468 0 8752:2.6936188 
1 0 373:0.14998673 2762:0.28641048 2889:0.18995882 2890:0.29237515 7011:0.25915032 8292:0.2903109 11596:0.3770824 12978:0.37015876 14981:0.19242157 15875:0.1631937 16300:0.17720168 16898:0.25324383 
1 0 87:0.40446366 2044:0.44778536 8584:0.19126692 9002:0.2979169 9168:0.30642516 9198:1.0655552 13125:0.50505353 13959:0.25574202 14807:0.2979169 14901:0.19531434 16542:0.22887599 16762:0.25181697 
0.8397921484693107 0 2133:0.38344374 2915:0.85282126 10376:0.33536238 10761:0.66008781 11524:0.75867705 13228:0.75867705 16374:0.39851309 16865:0.59333516 
1 0 4654:2.5584638 6804:0.88751209 8827:1.813933 
1 0 5487:0.23352839 6187:0.16486716 6636:0.17272195 6823:0.22800964 6978:0.21064981 8152:0.26136884 10243:0.1836185 10358:0.26705277 10658:0.32446512 12170:0.40165256 12558:0.4753445 13665:0.32446512 14178:0.28963859 14806:0.3021422 14976:0.20299962 16341:0.21831815 
1 0 6804:0.66563407 
1 1 14506:1.9532346 
1 0 1544:0.44922121 3572:0.46224418 6187:0.20019584 6303:0.32637936 6338:0.24178085 6804:0.19018116 10846:0.53667482 13274:0.32025315 14347:0.42867249 
1 0 3631:0.21270695 5365:0.28031576 5366:0.44072932 8673:0.49046987 11909:0.5370957 13668:0.5370957 14357:0.37875815 14522:0.56828533 16767:0.40366485 
1 0 2080:0.79606285 2889:0.40102418 8051:0.69878855 10376:0.33536238 14981:0.40622331 
1 0 6790:0.94271212 8770:0.63585844 14718:0.69815997 
1 0 1801:1.022491 5165:1.1380156 6804:0.44375604 9902:0.54076242 10194:0.61337557 12853:0.70335445 
1 0 1715:0.95942391 2889:0.4511522 6636:0.36703414 6956:0.80892731 9517:0.71037014 16300:0.42085398 16542:0.45775198 
0.1343588844022288 0 16793:8.0808564 
1 0 3641:0.64538571 5058:0.51620159 12002:0.49936001 14983:0.52110418 15901:1.7070234 16264:0.51500541 
1 0.5653659053208081 1496:1.3887819 6222:1.2257006 10080:0.805261 15016:1.4207403 
1 0 8:0.20870688 2889:0.20051209 2899:0.36537661 7162:0.35952325 8050:0.38790245 8649:0.24540527 9163:0.1494169 9742:0.1177695 12479:0.29319422 12515:0.29666758 12978:0.19536157 14143:0.38790245 15917:0.22287943 
1 0 432:0.20051209 772:0.26583442 2657:0.28535652 3631:0.15362169 6237:0.3300439 6719:0.27979633 8584:0.17001504 8649:0.24540527 9588:0.3818295 11906:0.27848908 11990:0.25906276 12613:0.27123241 12978:0.19536157 
1 0 2413:0.82789019 2889:0.60153627 6187:0.46712363 10846:0.62612063 11990:0.77718829 
1 0 3631:0.92173014 4834:1.5769841 16407:1.3021564 
1 0 1583:0.74259878 1629:0.71618515 8433:0.83682026 8673:0.79701354 13520:0.75824417 
0.2487174237977197 0 5062:1.417405 14885:2.6936188 
1 0 15048:1.3656187 
0.5740269792233281 0 6636:0.58725463 8473:0.99796279 10053:0.99796279 16740:0.88865405 
1 0 373:0.56994956 3631:0.55303808 8686:1.3153558 16374:0.71732356 16436:0.93929323 
1 1 589:0.87278052 2909:0.79701354 4548:0.71618515 8441:0.89557071 8770:0.39741153 8961:0.80892731 
1 0 373:0.31663864 513:0.4599194 10658:0.61287856 12173:0.79606285 14709:0.42581791 14747:0.74384023 16898:0.26731293 
0 1 1583:2.9703951 
1 0 2133:0.34509936 4424:0.66945621 5491:0.44045557 6357:0.35810467 6636:0.29362732 6908:0.49028026 8269:0.51904847 13661:0.45996163 15313:0.71645657 16542:0.36620158 
1 0 8:0.93918094 12695:1.9188478 
0.4235927542876214 0 6339:2.1922597 9902:1.0815248 16895:1.9802634 
0.1751552477718554 0 3631:0.92173014 4834:1.5769841 15939:1.9612106 
1 0.263350362262581 15343:5.277496 
1 1 9902:1.6222873 13663:2.3234346 
1 0 90:0.59704714 844:0.6734047 4456:0.58185368 6978:0.29842056 8453:0.43254039 12173:0.59704714 13589:0.23398807 14882:0.54806492 16702:0.53134236 
0.1826264404525213 0 6425:6.8280935 
0.1588886637696745 1 834:0.9715941 6292:0.43937942 13657:0.61033597 16553:1.1637074 
1 0.3603561681232719 8649:1.4724316 8718:1.421048 
1 0 1034:0.25761951 1447:0.38560027 7015:0.47191894 7127:0.33501254 7865:0.51496631 9163:0.20688494 15875:0.23851387 16586:0.47191894 
1 0 8:0.93918094 10194:0.92006335 16399:1.5337366 
1 0 3631:0.55303808 6582:1.3964488 9163:0.53790084 14842:1.0072668 
1 0.6271334478803585 1419:1.4323703 8607:1.4445678 
1 1 2133:0.49299909 6647:0.52058641 9944:0.51078665 14107:1.1544081 14981:0.52228711 14992:0.7994214 16697:0.58857761 
1 0 8:0.1977223 985:0.34614626 2105:0.23818465 4406:0.35234537 6636:0.15454069 6804:0.14013349 6841:0.29910322 8152:0.23385633 8564:0.19533729 8649:0.2324892 8770:0.16733117 9742:0.11157111 14803:0.24992905 14954:0.27938251 15064:0.3888268 16898:0.12662192 
1 0 373:0.17810924 1544:0.39306856 3198:0.34719549 3310:0.41104869 5925:0.19893854 6430:0.50505353 7229:0.50505353 7870:0.44778536 8180:0.31186337 9902:0.20278591 12192:0.32440529 13764:0.47971196 14712:0.36114196 15318:0.27295527 
1 0 2889:0.4511522 5221:0.78613712 5925:0.39787708 6303:0.57116387 8129:0.82209738 14709:0.47904515 14854:0.79701354 15972:0.92346365 
0.7474180585335429 0 5104:0.59554763 8288:1.1544081 9120:1.0235094 14981:0.52228711 15318:0.62389776 
1 1 401:1.2205458 4007:1.4207403 
1 0 2148:1.4775418 8338:1.5350783 16740:0.88865405 
1 0 5863:0.43025714 6804:0.22187802 7337:0.37137629 8457:0.40684861 9271:0.53134236 10665:0.61564244 11529:0.51124552 13602:0.53928488 16898:0.2004847 
1 0.4283714858324779 1447:2.5064017 4426:2.6093278 
0.2005805589117869 1 9742:0.42397022 14600:1.2131907 16459:0.65701317 16795:1.1659129 
0.7659889903063862 0 401:0.37555256 1034:0.25761951 6250:0.4616473 6825:0.35034584 6841:0.43715086 6978:0.27546513 8637:0.5370957 10583:0.55112044 
1 0 1720:1.1031814 4396:1.4329131 5487:0.79399651 16264:0.82400865 16422:0.83577675 
0.9679718951987633 0 401:0.19528733 2395:0.27928977 3588:0.49672434 4080:0.21109984 4610:0.38737424 5491:0.17618223 5496:0.2400566 6636:0.11745093 6692:0.21626831 6823:0.3100931 6978:0.57296748 8473:0.39918512 10080:0.12884176 10194:0.14721014 12419:0.17773081 13589:0.11231427 
1 0 9849:0.87782835 
1 0 1498:0.42641063 2133:0.19172187 6187:0.15570788 6357:0.19894704 6823:0.21534243 7011:0.27354756 7071:0.33341194 8119:0.15174282 8963:0.19091475 9902:0.18025414 10095:0.31325052 10425:0.23623417 14442:0.37933853 15829:0.25468605 
1 0 7915:1.1499041 
1 0 8:0.46959047 51:0.42955819 1281:0.54439537 6636:0.36703414 6647:0.45551311 9948:0.87278052 
1 0 8119:0.45522846 8564:0.61856809 12785:1.0109922 16526:0.91931784 
1 0 1486:0.60659534 2889:0.36092176 2890:0.55551278 5152:0.69822441 8394:0.61349463 10376:0.30182614 14976:0.34509936 15908:0.68280935 
0.1697415060669361 0 1034:1.1163512 7928:2.2760312 12083:2.6936188 
1 0 2133:0.2875828 3932:0.59704714 5058:0.34413439 7071:0.50011791 7127:0.36293025 10376:0.25152178 13560:0.6734047 14806:0.42803479 
1 1 51:0.85911638 6187:0.70068544 
1 1 5467:0.28192547 7430:0.31445485 8449:0.24309903 8564:0.18557043 10282:0.40404282 10358:0.22699485 11507:0.34911221 14762:0.36938546 15119:0.95641625 15318:0.21836422 16074:0.21715934 16300:0.33668318 16898:0.12029082 16905:0.30329767 
1 0 172:0.62160434 343:0.49780142 432:0.27763213 6542:0.55112044 6594:0.52523796 7717:0.49046987 9136:0.56828533 15875:0.23851387 16542:0.28169352 
1 0 5925:0.24484743 6654:0.55112044 6823:0.59633289 8082:0.51496631 8649:0.33979191 8673:0.49046987 9453:0.56828533 10164:0.55112044 12002:0.30729847 14807:0.36666695 
0 1 3198:1.8517093 10201:1.8795031 
0.4853854276544934 0 2909:1.5940271 5293:1.3119108 14850:1.6736405 
1 0 3143:0.82085658 4319:0.82085658 5549:0.74384023 6594:0.75867705 11213:0.60464434 13207:0.75867705 13381:0.74384023 16696:0.66682388 
0 0.5717138654697562 6823:0.77523276 10201:1.1277019 10251:1.6161713 12460:1.1881581 
0.07851614403448959 0 3614:1.5522636 3631:0.1728244 8370:0.24863832 9150:0.30263612 10250:0.25931442 12302:0.65233194 14597:0.41841013 16407:0.24415432 16638:0.25236282 16762:0.25181697 16867:0.24367539 
1 0 1080:0.89844242 3613:0.53293978 3614:0.88700775 15016:0.81185159 
1 0 3631:0.6912976 9588:0.85911638 10250:1.0372577 
1 0 13452:2.0505874 
1 0 7308:0.82543323 8770:0.79482306 
0 0.6856537781170761 6338:0.84623297 14266:1.7911414 14576:1.5522636 
1 0 2085:1.5722742 2573:1.3989874 6338:0.84623297 13520:1.5164883 
1 0 3148:0.41273367 4107:0.44922121 6762:0.43821045 7308:0.23583807 8449:0.34728433 9163:0.19210744 9816:0.49873172 9896:0.57720403 10503:0.33792517 11351:0.45543631 16880:0.34178711 
1 0 4299:0.58495738 4504:0.71618515 4862:0.75824417 6928:0.37807633 8241:0.45775198 
1 0 3706:0.60659534 6338:0.33849319 11873:0.6289097 
1 0 8770:1.0597641 14299:1.9431882 
1 0 257:0.80932316 2986:1.1659129 3613:0.7461157 6237:1.1881581 16729:0.62855836 
0.1634588348541243 0 11004:3.2357093 
0.393889890383455 0 9742:0.52996277 11272:1.5164883 13181:2.0202141 
1 0 3614:0.88700775 3631:0.3950272 4381:0.60591487 14893:0.89844242 
0.40991986682001 0 6278:1.2792319 11873:1.0481828 14033:1.0785698 16767:0.87460718 
1 0 9163:0.2988338 9484:0.89787294 11873:0.69878855 
1 0 6338:0.67698637 10503:0.94619047 14576:1.2418108 
1 0 8:0.31306031 38:0.44773385 51:0.28637213 1214:0.33795873 13217:0.50011791 14082:0.47745676 16746:0.48152261 16790:0.39279672 
1 0 3871:0.82085658 5863:0.57367619 9588:0.3818295 10076:0.82085658 10243:0.34683494 10250:0.46100342 15829:0.5093721 
1 0 1214:1.0138762 4873:2.0202141 13053:1.4323703 13274:1.120886 
1 1 6237:1.9802634 
1 0 2085:0.89844242 2573:0.7994214 6338:0.4835617 14119:0.97544192 14576:0.88700775 
0.242295432513394 0 13849:2.5584638 
1 0 3613:0.7461157 8309:1.3964488 8649:0.88345895 16271:0.83780722 
1 0 6636:0.48937886 6928:0.50410177 10201:0.93975156 10522:0.85174033 
1 0 373:0.23747898 3613:0.31088154 3631:0.23043253 6804:0.22187802 7127:0.36293025 7308:0.27514441 16697:0.34333694 16898:0.2004847 
1 0 3613:0.62176308 5969:0.71052402 6804:0.44375604 9751:1.0626847 
1 0 401:0.97643666 2598:0.8994675 3613:0.7461157 7931:0.71290349 
0.4608427114296812 0 1901:1.5722742 6790:1.1783901 7308:0.82543323 16901:1.6736405 
0.07966474886321429 0 12364:3.8376957 13800:3.8376957 
1 0 2573:1.3989874 3396:1.4851976 
1 0 16300:1.1222773 16374:1.1955393 
1 0 3613:0.62176308 7308:0.55028882 8872:1.0961298 
1 0 969:0.79701354 2053:0.68022489 3613:0.46632231 5487:0.49624782 
1 0 51:0.57274425 8584:0.51004513 16297:1.1380156 16587:1.2312849 
1 0 16170:1.3604498 
1 0 406:0.37129939 3631:0.3456488 7090:0.23275922 8515:0.3298435 9063:0.42675584 9588:0.2147791 10522:0.31940262 14708:0.26508776 14709:0.23952257 
0.4799431883617715 0 8202:2.0696847 12694:2.4625697 
1 1 8119:0.30348564 9643:0.52372895 9742:0.23553901 13130:0.73075322 16245:0.7758049 16496:0.59333516 
1 0 2133:0.4313742 6357:0.44763084 8082:0.83682026 8119:0.34142135 9163:0.33618802 15307:0.83682026 16898:0.30072705 
1 0 2889:0.90230441 14976:0.86274841 
1 1 6804:0.26625363 9742:0.21198511 13753:0.57294812 15196:0.6576779 15504:0.55551278 16472:0.36149483 
1 0 6187:0.56054835 8873:1.200283 12978:0.70330165 13269:1.4775418 14976:0.69019872 
1 0 3194:3.1445485 
1 0 7308:1.6508665 
1 0 12497:2.0004716 16898:0.8019388 
0.8860136734524015 0 6753:1.055387 7308:0.47167613 
1 0 416:0.56782688 2351:0.69878855 4769:0.89787294 5849:0.74384023 6790:0.52372895 7383:0.85282126 12716:0.63660902 
1 0 2842:1.2205458 10376:0.75456535 12002:0.99872003 
1 0 985:0.73075322 1034:0.37211706 1214:0.45061164 6804:0.29583736 13093:0.73075322 13447:0.89787294 13627:0.75867705 
1 0 369:1.055387 608:0.8764209 1214:0.57935782 2746:0.78259525 7354:1.0235094 11859:0.76754375 
0.2048403345938984 0.3463397405837142 1225:3.1880542 2889:1.8046088 
1 0 5366:1.4323703 9163:0.67237605 
1 0.3119213933156568 1486:1.5164883 4173:1.5003537 8720:1.4207403 16333:1.4851976 
0.02872124301452372 0 9658:1.3021564 13577:1.5332054 13589:0.93595229 
1 0 7308:0.66034659 
0.5356002995979532 0 3724:2.7979749 
1 0 5715:1.0680033 10040:1.6161713 10738:1.5350783 
1 0 257:0.67443596 16880:0.79750326 
0 1 16606:2.7033539 
1 0 3613:1.2435262 6303:1.5231037 
0.3040483328433686 0 10245:5.5959498 
1 0 3631:0.46086507 6187:0.46712363 8992:1.3468094 12978:0.5860847 
0.2170438058509063 1 3959:1.745561 4968:1.6441948 
1 0 8:0.62612063 257:0.67443596 1225:1.0626847 1883:0.9715941 6847:0.86051428 16880:0.79750326 
1 0 373:0.15831932 2133:0.19172187 2597:0.41042829 3631:0.15362169 5078:0.42641063 5925:0.17683426 6292:0.14645981 7328:0.37192011 8119:0.15174282 10376:0.16768119 11213:0.30232217 11643:0.37192011 11870:0.37933853 13860:0.44893647 16898:0.26731293 16904:0.19145152 
1 0 5243:2.8414806 
0 0.2943860754453465 410:2.0202141 6222:1.2257006 8584:0.7650677 11859:1.3432016 
1 0 258:0.86656477 1025:1.1544081 6357:0.51157811 6804:0.38036232 16459:0.46929512 16898:0.34368806 
1 0 794:0.75824417 2986:0.72869558 5365:0.45551311 6804:0.33281703 14983:0.52110418 
0.3071185831949875 0.2887821695960962 7:0.65275871 1051:1.4631629 1414:0.30938231 5074:0.35020018 10115:1.0644302 10211:0.29777382 16404:1.7316121 
1 0 7191:0.50766397 9023:0.6889657 10846:0.53667482 14870:0.78259525 15917:0.57311852 
0.0491107548016726 0 6804:0.66563407 8625:1.7911414 9742:0.52996277 11037:1.745561 
0.03884141040509603 0 2889:0.60153627 4285:0.52620542 5571:1.3468094 16459:0.54751098 16904:0.57435457 
0.02768628546123109 0 2760:1.745561 9727:1.2651079 14743:1.319374 
1 0 7931:0.44556468 9742:0.26498139 14718:0.43634998 
1 0 6:0.66008781 4750:1.1661429 5073:0.4599194 6357:0.39789408 15293:0.85282126 16526:0.61287856 
1 0 2133:0.31372669 6008:0.53487562 10865:0.51663283 12901:0.597889 12978:0.31968257 
0.2906669863245758 1 6825:0.91089918 13015:1.5350783 13846:1.4775418 
1 0 373:0.17810924 432:0.2255761 2105:0.28284427 6292:0.16476728 7038:0.36772699 8119:0.17071067 8180:0.31186337 9270:0.41841013 9742:0.13249069 10244:0.32797769 14730:0.27608092 14733:0.35518507 15875:0.19379252 
1 0 2133:0.38344374 3077:0.7758049 5819:0.66008781 6056:0.52566137 9643:0.52372895 10250:0.46100342 14823:0.55959266 16606:0.60074531 
1 0 7:0.35148546 8:0.28897875 9:0.59041472 5715:0.41077049 10846:0.28897875 14518:0.38383184 16542:0.28169352 16880:0.36807843 
1 0.1740268960183416 14901:1.5625147 16199:3.2883895 
0.5200568116382285 0 3180:1.2312849 6978:0.59684112 7915:0.76660272 16749:1.2312849 
1 0 1683:0.64538571 6905:0.66750205 7782:0.64881058 9163:0.33618802 9727:0.63255394 10846:0.46959047 13589:0.35098211 14518:0.62372675 
1 0 1414:0.3937593 5439:0.67160993 6338:0.30772108 7191:0.32305889 9132:0.53487562 9980:0.43843272 13851:0.62073577 16285:0.53487562 16898:0.21871058 
1 0 2281:0.74259878 6905:0.66750205 8193:0.70481367 13657:0.45775198 16459:0.41063323 
1 0 4486:1.022491 6193:1.2312849 8119:0.45522846 11317:1.3468094 12320:1.2312849 
1 0 2005:0.55145031 6231:0.42244266 8493:0.67160993 8564:0.33740078 14730:0.40157225 16472:0.32863166 16898:0.43742117 16904:0.31328431 
0.45894914224655 0 3651:0.55959266 4941:0.89787294 7931:0.39605749 8180:0.55442377 8584:0.34003009 8730:0.42268781 14434:0.7190465 
1 0 897:0.53928488 5004:0.50011791 5981:0.46292731 8370:0.33151775 8607:0.48152261 9565:0.52409141 14438:0.59704714 16472:0.30124569 
1 0 1801:0.25562276 4072:0.33670235 6357:0.14921028 6663:0.21744398 6804:0.11093901 7727:0.24515133 8564:0.15464202 8584:0.12751128 9309:0.27894009 10211:0.17370139 10243:0.1300631 10410:0.23316457 10846:0.15653016 11079:0.33670235 13657:0.15258399 13703:0.26964244 14983:0.17370139 16448:0.27894009 16871:0.29852357 
0.436785380134928 0 5340:1.200283 9324:1.4775418 9742:0.42397022 11042:1.6161713 
1 0 6338:0.67698637 15875:0.62013607 
1 0 419:0.23088161 1486:0.17331295 1853:0.15447736 2133:0.098599818 3666:0.19508838 4270:0.23088161 4363:0.19508838 4381:0.12118297 5228:0.1507856 7463:0.14129606 7931:0.20368671 8584:0.087436308 8730:0.10869115 9393:0.14601263 9588:0.098184729 9742:0.060567174 10243:0.17837225 11878:0.18489767 12982:0.1507856 13440:0.21107741 14506:0.1116134 15223:0.1912732 16724:0.14192403 16740:0.12695058 16898:0.20621284 16904:0.29538235 
1 0 1271:0.54744431 1486:0.75824417 8241:0.45775198 16341:0.46392607 16898:0.30072705 
1 0.3629610136917005 3290:0.90797942 8090:1.6161713 12373:1.6161713 14481:1.0956333 16697:0.82400865 
1 0 3631:0.6912976 11030:1.7070234 16697:1.0300108 
0.2997870411471704 0 5211:2.3274147 12086:0.91931784 14718:1.1636 
1 0 145:1.0348424 1034:0.5581756 2121:1.2792319 5925:0.53050277 
1 0 10080:1.0736813 
1 0 9371:0.97239612 9898:0.88865405 14718:0.69815997 
1 0 234:0.89844242 4610:0.69173971 6219:1.0964845 8152:0.63475289 10376:0.4311802 12002:0.57069716 
1 0 1714:0.73075322 3708:0.62650104 5812:0.57672052 8119:0.30348564 14718:0.38786665 16338:0.85282126 16459:0.36500732 
1 0 6636:0.73406829 10211:1.0422084 
1 0.3358857158569346 1477:2.4625697 5875:2.0963657 
1 0 2523:0.93265829 3194:1.0481828 6636:0.48937886 8119:0.45522846 8770:0.52988204 13657:0.61033597 
1 0 3658:0.36537661 4577:0.34494746 4628:0.42641063 4861:0.38790245 6603:0.44893647 6804:0.14791868 7682:0.44893647 8248:0.34939428 9639:0.34939428 10034:0.34494746 11372:0.3300439 14507:0.37933853 14763:0.27011003 15917:0.22287943 
1 0 568:0.70648031 2105:0.64650119 2133:0.49299909 6215:3.2894534 
0.3076974101045552 0.2377398821384124 1569:2.3274147 13990:2.4625697 
1 0 4010:2.0202141 6636:0.73406829 12992:1.3789768 
1 0 3751:0.68477084 6636:0.36703414 9902:0.40557181 11547:1.0101071 13951:0.74259878 14901:0.39062867 15104:0.75824417 
0.439903616643823 0 8625:1.7911414 13803:2.0202141 
0.6749884734144618 0 6292:0.32953457 9980:0.60284499 12481:3.5822828 13155:0.95942391 
1 0 2176:0.38790245 2177:0.44893647 2356:0.82085658 4327:0.23998091 5715:0.29666758 7191:0.19742488 8355:0.3300439 10080:0.17894689 10658:0.30643928 13231:0.25727049 14730:0.24540527 15155:0.32686844 
1 0.8416117940769543 16459:0.82126647 16697:1.0300108 
1 0 3751:0.78259525 6187:0.40039168 6636:0.41946759 6823:0.55373769 9727:0.72291879 10827:0.97544192 14581:1.0235094 
1 0 5073:0.4599194 5725:0.7190465 7191:0.39484975 8770:0.35325469 10904:0.54475584 12111:0.74384023 14732:0.7758049 14782:0.68989492 
0.2724088788531074 0 9557:2.2315207 10243:1.0405048 
1 1 10211:1.0422084 12613:1.2205458 
0.2771704009592661 0 2477:2.5584638 4500:2.1922597 11218:2.6936188 
0.128330932958708 0 3497:2.5584638 6925:2.6936188 8770:1.0597641 
1 0.2859123430638509 15356:3.6938546 16618:2.9147823 
1 0 7:0.19038796 1583:0.24753293 2133:0.1437914 8241:0.15258399 8520:0.19229669 9163:0.11206267 9637:0.31980797 10493:0.22982946 10494:0.27403246 11165:0.19038796 12086:0.22982946 12340:0.25274806 12828:0.31980797 13319:0.30782122 13589:0.11699404 14033:0.26964244 14776:0.16440374 16459:0.13687774 16542:0.15258399 16591:0.23679005 
1 0 513:1.0348187 6804:0.66563407 14776:0.98642247 
1 0 2027:0.60046396 4605:0.82209738 8963:0.42955819 12123:0.95942391 13018:0.78613712 13665:0.68948838 
1 0 6804:1.3312681 
1 0 513:0.59132494 4577:0.88700775 8770:0.4541846 10023:1.0964845 
1 0 1161:1.1544081 2105:0.64650119 4285:0.45103321 6605:0.99746345 14823:0.71947628 16459:0.46929512 16898:0.34368806 
1 0 2486:0.74259878 3658:0.82209738 6426:1.0101071 11041:0.73545398 12574:0.89557071 16898:0.30072705 
1 0 8:0.09632625 2133:0.088487016 2697:0.13532041 4026:0.19680491 4324:0.36741363 5526:0.1612589 8119:0.1400703 8152:0.22786001 8872:0.16863536 9742:0.10871031 9924:0.13103697 11222:0.16348996 11269:0.17165544 14033:0.16593381 14211:0.59041472 14250:0.13953331 14434:0.16593381 14481:0.28093163 16300:0.086329021 16477:0.11915049 
1 0 5496:2.0004716 5526:2.0963657 
0.4017615042281711 0 11367:2.8414806 
1 0 757:0.55772239 4381:0.38558219 5925:0.28936515 8473:0.45361945 9643:0.42850551 9742:0.38542747 16787:0.73462331 
1 1 9849:1.1704378 13657:1.2206719 
0.5091289471976219 0 8627:2.4625697 
0.5106243271770504 0 4981:3.6938546 
0.5146145723455066 0 1272:0.75824417 2133:0.4313742 6636:0.36703414 9023:0.60284499 10243:0.3901893 11047:0.85351168 13818:0.76686828 
1 0 5074:0.54475584 8050:0.7758049 8963:0.3818295 10243:0.34683494 14718:0.38786665 16898:0.26731293 
0.3407013385687476 0 14105:4.2507389 
1 1 1068:1.3389124 8770:0.63585844 11342:1.3656187 16300:0.67336637 
0.2694508437803895 0 1720:1.1031814 6636:0.58725463 13603:1.6161713 14953:1.4329131 
1 0 876:0.90111796 3396:0.99013171 7312:1.1940943 16542:0.61033597 
1 0.5233949353649091 3641:2.5815428 
1 0 373:0.47495797 1272:0.50549612 2027:0.40030931 2133:0.2875828 4411:0.63961594 5073:0.34493955 10243:0.2601262 12187:0.56900779 13818:0.51124552 14045:0.33575596 
1 0 140:0.4842178 2740:0.80808564 9163:0.26895042 10493:1.1031814 11165:0.4569311 14623:0.51364174 16898:0.24058164 
0.6081679944516217 0 5994:2.4625697 
0.5814522954002572 0 10698:3.6938546 
0 0.3567703251090326 2035:1.2752217 4189:1.3964488 15088:1.4775418 
1 0 1123:1.8022359 5863:1.7210286 
1 0 86:0.55112044 401:0.37555256 1419:0.44072932 4044:0.45698387 4148:0.48377669 5875:0.48377669 6875:0.55112044 7434:0.49780142 14623:0.39510903 16074:0.33409129 
1 0 3141:1.3389124 
1 0 834:0.9715941 
0.2525819414664571 0 7352:3.2357093 
1 0 609:0.45465249 5426:0.7190465 6357:0.39789408 6636:0.32625257 8241:0.40689065 10243:0.34683494 10250:0.46100342 
1 0.2269849701212535 1678:1.745561 7178:1.1617173 9750:1.3432016 14901:0.78125734 
1 0 6636:0.97875772 
1 0 3651:0.839389 
0 1 6056:1.1827381 6636:0.73406829 8119:0.68284269 8756:1.319374 
0 0.4389877555131907 6804:0.66563407 10827:1.7070234 11203:1.7070234 
1 0 728:0.83279495 2598:0.64247678 5080:0.97544192 8462:1.055387 12566:1.0235094 15124:0.78798672 
1 0 1271:0.27372215 1281:0.27219769 1687:0.41841013 3708:0.35240684 3724:0.34974686 4285:0.19732703 5340:0.37508843 5925:0.19893854 6647:0.45551311 7529:0.50505353 13470:0.50505353 14258:0.47971196 16867:0.24367539 
1 0 16090:1.6161713 
0.1846627175626186 0 11729:4.0404282 
1 0 6636:0.41946759 6663:0.74552222 8119:0.39019582 12790:0.69173971 16341:0.53020122 
1 0 2890:0.61723642 4189:0.7758049 4285:0.35080361 5491:0.48939508 5775:0.68989492 6978:0.39789408 
1 0 373:0.56994956 6292:0.52725531 9742:0.42397022 
1 0 9078:1.0348424 10243:0.5202524 13093:1.0961298 16898:0.4009694 
1 0 13452:0.51264685 16339:0.79701354 
1 0 4728:2.4625697 
1 0 8119:0.39019582 8645:0.60745929 10459:1.1544081 12479:0.75392801 12723:1.055387 14918:0.91087262 
1 1 8436:0.82085658 9902:0.36050828 10311:0.66008781 10528:0.6477294 11322:0.66008781 16740:0.4936967 16880:0.53166884 
0.5243685855943714 0 1265:2.1922597 3339:1.8943204 
1 0 1241:0.21694843 3865:0.33371267 3934:0.2772221 5925:0.13839203 6847:0.44896397 8119:0.11875525 9101:0.35134158 10693:0.23507425 12051:0.29687363 12059:0.35134158 12766:0.31150286 16147:0.31150286 16300:0.58553597 16904:0.59932651 
1 1 6790:1.5711869 
1 0 373:0.23747898 3511:0.61564244 4834:0.39424603 4882:0.43025714 7337:0.37137629 8718:0.35526201 12086:0.45965892 13277:0.46632915 14033:0.53928488 15875:0.25839003 16898:0.2004847 
1 0 373:0.10960568 5061:0.26854785 5507:0.22036466 6453:0.1607263 7337:0.17140444 7640:1.1022409 8638:0.31080217 10095:0.86746298 11544:0.29520736 12407:0.23082365 12551:0.25295304 13293:0.23880978 16729:0.12087661 
1 0.7056139245546535 8584:0.61205416 13410:1.3964488 
0.2061296230231658 0.7606452440854444 2993:0.85282126 3790:0.85282126 3802:0.7758049 5365:0.40490054 7099:0.73075322 9132:0.65373687 9727:0.56227017 13217:0.66682388 
0.5957580002474708 0 1853:0.27033539 4381:0.21207021 5228:0.2638748 6804:0.13312681 8584:0.15301354 10846:0.18783619 11745:0.34140467 11760:0.3347281 12002:0.19974401 13526:0.28192547 13657:0.18310079 13928:0.35822828 14045:0.20145357 14726:0.28891357 14730:0.22086474 16472:0.18074742 16898:0.12029082 16904:0.17230637 
1 0 3708:0.62650104 9163:0.2988338 9742:0.47107802 16341:0.41237873 
0.55340073353829 0 4862:0.50549612 5428:0.42170263 6825:0.37954132 7931:0.29704312 9168:0.40856688 10243:0.2601262 10322:0.55788017 10827:0.56900779 16424:0.6734047 16526:0.45965892 16724:0.41394509 
1 0 8584:0.61205416 9517:1.1365922 9742:0.42397022 9768:0.95333408 11859:1.0745612 
0.2908634915565063 0 64:1.0348424 5872:1.1637074 14630:1.2792319 14718:0.58179998 16199:1.0961298 
1 0 1244:1.0964845 3402:0.99746345 11996:0.74149781 14807:0.68095292 16436:0.67092374 16459:0.46929512 
1 0 6804:0.66563407 9742:0.52996277 
0.3172634604505795 0 3580:1.9188478 12930:2.0202141 
0.6552214932363017 0 3346:1.4775418 9797:1.2418108 14718:0.69815997 
1 0 4285:0.19732703 7366:0.39306856 8119:0.17071067 8584:0.19126692 8770:0.19870576 9944:0.22346916 10243:0.19509465 14776:0.24660562 16271:0.26181476 16898:0.45109058 
0.4908710528023781 0 3641:1.7210286 7970:2.4625697 16898:0.8019388 
1 0 3755:0.99746345 8564:0.53020122 9742:0.30283587 14718:0.4986857 
1 0 1230:2.0202141 
0.5826995943684963 0 244:1.0235094 1225:0.91087262 2760:0.99746345 6187:0.40039168 14271:0.97544192 16702:0.91087262 
1 0 7367:1.6161713 9198:1.1365922 9742:0.42397022 
1 0 4032:0.31832253 4474:0.51175469 5981:0.39679484 6804:0.19018116 7191:0.25383198 8015:0.54824224 8119:0.19509791 8214:0.46976993 8241:0.26157256 8963:0.24546182 9003:0.46224418 12644:0.54824224 14970:0.54824224 
1 0 373:0.16763222 7090:0.21906751 7191:0.2090381 8119:0.16066887 9902:0.19085732 10253:0.41072024 10522:0.60122847 11047:0.40165256 11322:0.34945825 13336:0.95068899 16420:0.36994688 16904:0.20271338 
1 0 297:0.98060531 1447:0.83546725 2124:1.3468094 6196:1.0109922 
1 0 1281:0.2903442 3324:0.40439689 5522:0.25501625 6939:0.28494626 8996:0.53872376 10211:0.27792223 10743:0.49251395 10846:0.25044825 14481:0.36521112 14718:0.23271999 15917:0.26745531 16271:0.27926907 16436:0.31309774 16437:0.53872376 
0.02266088392787424 0 3346:1.2312849 7090:0.62069127 10030:1.0785698 16459:0.54751098 
1 0 9002:2.3833352 14795:4.0404282 
0 0.8748534186099469 1583:0.84868432 6636:0.41946759 6656:0.77238682 13184:1.055387 
1 0 2573:2.7979749 5526:3.1445485 
1 0 373:0.28497478 505:0.80808564 9727:0.50604315 9742:0.21198511 10193:0.61349463 10243:0.31215144 11268:0.80808564 14730:0.44172948 
0.3008233560035861 0 9636:2.3274147 9742:0.70661703 14270:2.4625697 
0.5880160517078307 0 2405:1.9188478 4332:0.1723721 5282:0.19171707 6724:0.11351063 11988:0.13462798 15647:0.20920506 16746:0.18057098 
1 0 252:0.27995284 6056:0.31539682 6804:0.17750242 7216:0.53872376 7814:0.41927313 8119:0.18209138 9066:0.46548294 9402:0.47763771 11766:0.31087532 11988:0.28720637 13102:0.51169275 15393:0.49251395 
0.4268276762682968 0 5101:1.2792319 8433:1.1157603 10534:1.2312849 12460:0.99013171 14718:0.58179998 16634:1.1157603 
1 0 4486:0.76686828 4803:1.0101071 9898:0.55540878 14518:0.62372675 14920:0.87278052 16472:0.45186854 
1 0 5682:0.69439097 6847:0.64538571 8564:0.46392607 9980:0.60284499 14485:0.83682026 14901:0.39062867 16904:0.43076593 
0.4418381537392803 0.2963365353191781 605:1.5543766 12534:2.6936188 
1 0 309:0.44842805 1945:0.62160434 2161:0.45258706 3706:0.4666118 4039:0.56828533 8963:0.2643435 9371:0.37399851 9742:0.16306547 12434:0.62160434 12716:0.44072932 15875:0.23851387 
1 0.1996256190627492 5801:1.2776105 8730:0.95104758 12002:0.99872003 
1 0 1214:0.21344762 3549:0.34060097 3804:0.42530823 4285:0.16617013 7931:0.18760618 8373:0.28277927 9163:0.14155285 9658:0.20560364 10243:0.16429023 11213:0.28641048 12467:0.3770824 12979:0.3770824 14776:0.20766789 14983:0.21941228 16740:0.23385633 
1 0 3290:0.41271792 3549:0.58831077 7076:0.52529739 7308:0.30015754 8963:0.31240596 14777:0.30772108 16374:0.32605616 16422:0.37989852 16740:0.40393366 16880:0.43500178 
1 0 4160:3.4140467 
1 0 4381:0.60591487 8179:0.7994214 9231:0.82546733 14045:0.57558164 
0 1 8:0.53667482 3651:0.71947628 4951:1.0964845 14438:1.0235094 
0.5604831692891785 1 1034:3.3490536 
0.4838918353247764 1 10410:1.8653166 13372:1.7909354 
1 0 257:0.80932316 10153:1.4775418 10503:0.94619047 14082:1.1458962 
1 1 91:0.597889 1247:0.40884886 6636:0.26693392 6928:0.2749646 10658:0.5014461 13147:0.7007314 14082:0.52086192 14777:0.30772108 
1 0 12652:5.1630857 
0.6580841424575703 0 4417:1.9612106 
1 0 3613:0.41450872 4044:0.66008781 6928:0.33606785 10080:0.35789378 12010:0.79606285 12515:0.59333516 13589:0.3119841 
0.2537102634356014 0 2857:2.7979749 
1 0 5522:0.95631093 9445:1.7070234 
0.3993827138580884 0.5720263357299655 6292:0.87875885 8376:1.9802634 11269:2.2315207 
1 0 11674:2.2760312 16790:1.5711869 
1 0 608:0.8764209 789:0.86656477 4327:0.61709376 6292:0.37661094 6636:0.41946759 10053:0.71283057 13760:0.84051883 
1 0 1414:0.61876462 5500:0.67585033 6578:0.78798672 8370:0.56831615 11674:0.97544192 15875:0.44295433 
0.3014772418314497 0 367:1.3468094 5500:0.78849206 7347:1.1380156 10243:0.5202524 14045:0.67151191 
1 0 789:2.0219845 2686:1.4102363 6292:0.87875885 
1 0 9066:1.745561 10522:1.2776105 16790:1.1783901 
1 1 16300:1.6834159 
0.3478010754471835 0 6179:3.4140467 
0 0.6040078237178488 11674:2.2760312 13959:1.3639575 14976:1.1503312 
1 0 2133:0.69019872 3613:0.7461157 11013:1.4329131 
1 0 5277:0.9847712 5725:1.2942837 
1 1 16790:2.3567803 
0.5476952856061974 0 5365:1.2147016 11964:1.9431882 13276:2.6936188 
1 1 12853:2.1100634 
0.3409429131673545 0.6904069466684635 3613:0.62176308 5969:0.71052402 6928:0.50410177 9658:0.65107819 12010:1.1940943 12515:0.89000273 
0.5446043156938747 0 9751:3.1880542 12333:3.6938546 
1 0 51:0.34364655 1532:0.68280935 3613:0.37305785 6231:0.46468692 6729:0.49673411 9163:0.26895042 10243:0.31215144 14901:0.31250294 
1 0.2289909197122916 6056:1.1827381 6292:0.65906914 7127:1.0887907 9944:0.89387664 
1 0 1683:2.5815428 16074:2.1715934 
1 0 6636:0.97875772 14506:1.3021564 
1 0 3613:0.93264462 8903:1.1278309 13628:1.7911414 
1 0 401:0.25695702 568:0.26028222 2964:0.36748653 3148:0.30411954 4647:0.33558465 5969:0.224376 6187:0.14751272 9780:0.42530823 10080:0.16952863 10522:0.26897063 10968:0.42530823 11990:0.24542788 14178:0.25915032 16724:0.26143901 
1 0 3297:0.85734498 3631:0.3950272 4381:0.60591487 9443:0.61219532 9963:1.0235094 
0 0.3229022744105089 3631:0.92173014 13080:2.4625697 14823:1.678778 
0.3531146012386126 0 10503:2.3654762 13080:3.6938546 
0.4111242741258473 0 3631:0.92173014 15300:2.5584638 
1 0 1419:0.35809257 1629:0.35809257 6222:0.30642516 6636:0.18351707 6908:0.30642516 8214:0.41104869 9849:0.21945709 14718:0.21817499 15318:0.27295527 16229:0.41841013 
1 0 757:1.022491 1232:0.96304522 3613:0.62176308 6928:0.50410177 13369:1.0109922 16780:1.2792319 
1 1 51:0.2643435 406:0.45698387 1251:0.36666695 6928:0.46532471 7090:0.28647289 7191:0.27335752 8216:1.0299326 11272:0.4666118 12652:0.39716044 14777:0.26037937 
1 0 10503:2.3654762 
0.317272978852532 0 9103:7.6753913 
1 0 3613:1.2435262 8633:1.7395518 9713:2.3881886 
1 0.5809803028962883 12853:1.4067089 14250:1.813933 
0.9097284649877089 0 9658:0.97661729 
1 0 571:0.17247373 993:0.19395123 1629:0.15915225 1687:0.18596006 2535:0.17247373 3631:0.076810845 4578:0.17041517 4656:0.17469714 5491:0.12234877 6841:0.15786003 7176:0.11418235 7534:0.19901571 8241:0.10172266 8377:0.17247373 8520:0.12819779 10370:0.11722574 11766:0.12953138 12245:0.17041517 12276:0.19901571 13661:0.12776712 13976:0.13618896 16201:0.16670597 16898:0.066828234 16904:0.095725762 
1 0 6:0.11001463 7:0.08461687 373:0.10554621 432:0.066837363 1250:0.10214643 1291:0.10012422 1563:0.11233247 2133:0.063907289 2999:0.12397337 3185:0.11807608 3290:0.084072168 3339:0.10524002 3631:0.05120723 4327:0.079993635 4834:0.087610228 5260:0.091580782 5925:0.058944752 6278:0.14213688 6804:0.098612454 6825:0.084342517 6870:0.11984108 8370:0.073670612 8720:0.10524002 8730:0.070447969 9569:0.22002927 9588:0.06363825 9742:0.039256501 9944:0.066213085 10080:0.059648963 10243:0.057805823 10846:0.069568959 11166:0.12930082 11910:0.11361012 11964:0.1079549 12086:0.10214643 12707:0.14213688 13951:0.11001463 14410:0.11807608 14506:0.072342021 14623:0.095118841 14635:0.14964549 14708:0.078544521 14718:0.064644442 15034:0.11984108 16459:0.12166911 16740:0.082282783 16898:0.089104312 16904:0.063817175 
1 0 373:0.091927348 415:0.15883406 1225:0.20568091 1322:0.2383132 1430:0.20568091 1687:0.21595361 2027:0.15495844 2157:0.16834373 4327:0.13934375 5365:0.23510354 5925:0.10267796 6804:0.17177653 8649:0.14249338 9023:0.1555729 9453:0.2383132 10370:0.13613312 10528:0.56415141 12613:0.15748978 13788:0.16927881 15917:0.12941386 16459:0.10596987 16546:0.17440993 16898:0.31042792 
1 0 6303:0.50770122 8473:0.55442377 14709:0.42581791 14714:0.59333516 14718:0.38786665 16691:0.70845648 
1 0.5371909343855621 3613:1.8652892 6386:3.1880542 
0.146151475920078 0 11656:8.0808564 
1 0 8895:2.8192547 
1 1 5487:1.3233275 6804:0.88751209 14776:1.31523 
1 0.8236490305726156 2657:1.7121391 3613:1.2435262 
1 0 4327:1.4398854 10080:1.0736813 16729:1.0475973 
0 0.3160535092414043 14172:6.2090542 
1 0.7992539776816993 2842:0.81369722 6825:0.75908265 6908:0.81713376 11906:0.83546725 
1 0 3613:0.53293978 5097:1.0964845 5142:0.80550134 9742:0.30283587 10663:0.71283057 16865:0.76285949 
1 1 8473:1.6632713 16407:1.3021564 
1 1 3394:1.678778 10211:1.3896111 
1 0 5062:0.7087025 12983:1.0109922 13231:0.77181148 
1 0 6668:0.87278052 10201:0.70481367 13073:0.82209738 
1 0 2005:0.4666118 5210:0.43373149 6338:0.26037937 8119:0.21010544 8152:0.34179002 9588:0.2643435 9742:0.16306547 9944:0.27503897 13706:0.47761956 14708:0.32626185 14930:0.36666695 16521:0.55112044 16868:0.62160434 
1 0 4504:0.28647406 6647:0.18220524 6928:0.15123053 7176:0.20552823 7308:0.16508665 9750:0.26864031 9773:0.29147823 10080:0.1610522 11538:0.3347281 13657:0.18310079 14976:0.17254968 16461:0.32357093 16790:0.23567803 
1 0 252:0.38175387 3631:0.25138095 5487:0.36090751 6636:0.26693392 6767:0.69776285 16654:0.73462331 16663:0.43843272 16729:0.28570835 
1 0 4285:0.42096433 4588:0.35388451 6990:0.36521112 8584:0.20401805 8873:0.40009433 11538:0.44630414 12853:0.28134178 16501:0.32281186 
1 0 5507:1.4323703 7308:0.82543323 8584:0.7650677 
1 0 1080:1.5722742 8119:0.68284269 8152:1.1108176 12497:1.5003537 
1 0 5500:0.59136904 8119:0.34142135 9742:0.26498139 12479:0.659687 15934:0.82209738 
1 0 7:0.65275871 9944:0.51078665 16696:0.85734498 
1 0 432:0.36092176 4504:0.57294812 6636:0.29362732 6939:0.42741939 10593:0.48821833 11199:0.64714185 15334:0.80808564 16880:0.47850196 
1 0 876:0.28456357 5071:0.32679233 5691:0.26262179 5902:0.21837004 5969:0.224376 6453:0.21994125 6647:0.19179499 9944:0.18818456 10080:0.16952863 10376:0.15885586 13944:0.2903109 14930:0.25087739 15875:0.1631937 16341:0.19533729 
0.9363871539888827 0 9569:1.1881581 9902:0.6489149 
1 0 14045:1.3430238 16790:1.5711869 
1 0 6231:0.7744782 6905:0.89000273 9163:0.4482507 14189:0.82064267 
1 0 663:0.34060097 834:0.30681919 2027:0.25282693 3631:0.14553634 4548:0.30155164 5277:0.25915032 9727:0.2663385 9742:0.11157111 10080:0.16952863 10194:0.19369755 11018:0.32679233 11999:0.32679233 12340:0.31926071 16431:0.26383176 16729:0.1654101 
0.8055085457162701 0 10846:0.62612063 16201:1.0002358 
0.2605819026405624 0.5524617094243578 11906:1.2532009 14189:1.230964 14250:1.3604498 16448:1.6736405 
1 0 6292:0.43937942 10522:0.85174033 11990:0.77718829 13071:0.88471128 
1 0 1414:0.36094603 3641:0.43025714 4007:0.4735801 7038:0.49030265 8963:0.57274425 9150:0.40351483 13708:0.4735801 14189:0.41032133 
0.4581916274520003 0 9902:0.6489149 10115:0.99346822 13198:1.3153558 
1 0 10593:2.4410917 
1 0 373:0.23747898 5060:0.27403246 6647:0.1518377 8537:0.29092684 9275:0.27403246 10080:0.13421017 10376:0.12576089 11804:0.31980797 12598:0.27894009 13071:0.22117782 13541:0.30782122 14901:0.13020956 15169:0.22386693 15275:0.20516067 15875:0.12919501 16170:0.22674163 16786:0.31980797 
1 0 10080:1.0736813 16422:1.3929613 
1 0 2027:0.34312226 5500:0.33792517 5522:0.27323169 5819:0.42434216 6292:0.18830547 7176:0.29361175 9773:0.41639747 10243:0.22296532 10522:0.36503157 
1 0 432:0.40102418 5365:0.40490054 8873:0.66682388 13452:0.45568609 14889:0.61287856 14953:0.79606285 
1 0 1034:0.20931585 1306:0.20223183 3390:0.22389268 4524:0.21819513 6292:0.082383642 7759:0.23985598 8770:0.099352882 9163:0.16809401 9742:0.066245346 9916:0.13391773 10376:0.094320668 11269:0.20920506 12037:0.23985598 12757:0.21337792 14485:0.20920506 14777:0.10577912 14945:0.15665011 15504:0.17359774 16542:0.11443799 16898:0.15036353 
1 1 9588:0.49092365 10663:0.71283057 14415:0.83279495 16271:0.59843373 
0 1 1044:0.73056183 5058:0.31766252 5150:0.55112044 6939:0.32878415 7319:0.77482061 8119:0.21010544 13147:0.29646328 13223:0.33501254 16074:0.33409129 16697:0.3169264 
0.1502774399005067 0 6042:8.0808564 
1 0 3321:1.1637074 8770:0.52988204 
1 0 8119:1.3656854 
0 1 2857:1.11919 6292:0.52725531 13209:1.1365922 14178:0.9847712 
1 0 1799:0.35973814 3320:0.43821045 6292:0.18830547 7127:0.31108307 7176:0.29361175 8457:0.34872738 9588:0.24546182 12658:0.43821045 14712:0.41273367 14803:0.33918942 15169:0.38377187 
1 0 5487:0.56714037 8548:0.8764209 10593:0.69745476 16729:0.44897026 16790:0.6733658 
1 0 252:0.23329403 1291:0.30037265 5487:0.22055459 5500:0.26283069 7090:0.20689709 7308:0.18342961 8520:0.25639558 9742:0.1177695 10243:0.17341747 10593:0.27123241 14718:0.19393333 15343:0.29319422 16627:0.3238647 16866:0.39803143 
1 0 11988:0.71801591 14930:0.79444507 15343:0.87958267 
1 0 6800:1.0964845 7176:0.5872235 9643:0.6733658 10376:0.4311802 13085:0.92448836 14178:0.703408 
1 1 610:0.49470901 5491:0.40041416 5522:0.34774943 6187:0.25479471 7337:0.40513777 8754:0.62073577 10376:0.2743874 16898:0.21871058 
1 0 2857:0.43045767 4285:0.24286404 7191:0.27335752 7892:0.56828533 10211:0.32067949 11004:0.99560285 12138:0.59041472 14485:0.51496631 15917:0.30860228 
1 0 9320:0.96843559 13577:0.91992327 13589:0.56157137 14930:0.95333408 14981:0.73120196 
0.1699786933856253 0 11935:2.0449821 12152:2.6936188 14353:2.5584638 
1 0 1024:0.3108861 1271:0.24330858 3651:0.27979633 5366:0.31830451 5617:0.34494746 6847:0.28683809 8241:0.20344532 8718:0.23684134 9742:0.23553901 9768:0.26481502 11357:0.36537661 14983:0.23160186 
1 0 2133:0.69019872 5157:0.44630414 6840:0.35388451 7191:0.23690985 9163:0.17930028 13025:0.47763771 13661:0.30664109 15917:0.26745531 
1 0 991:0.6289097 6790:0.47135606 7308:0.33017329 9750:0.53728062 13665:0.55159071 14045:0.40290715 
1 0 2133:0.5751656 2406:0.51124552 3631:0.23043253 5314:0.52409141 5416:0.50549612 7308:0.55028882 14214:0.59704714 15318:0.36394036 16790:0.39279672 
1 0 836:0.52769352 5058:0.29497234 5902:0.29635934 6357:0.25578905 7191:0.25383198 7337:0.31832253 8963:0.24546182 11526:0.38869994 12299:0.54824224 13018:0.44922121 16762:0.28779082 16898:0.17184403 16904:0.24615196 
1 0.5599687471532949 6244:2.0004716 8645:1.417405 
1 0 101:0.47761956 6776:0.62160434 6928:0.46532471 8119:0.42021089 8701:0.52523796 8903:0.3470249 9163:0.20688494 11958:0.56828533 12066:0.48377669 
1 0 1577:3.2883895 4647:3.1880542 
1 0 684:0.92346365 10425:0.53152688 14901:0.39062867 16880:0.59812744 
1 0 8:0.13913792 513:0.15330647 1762:0.21220301 4032:0.16505613 6978:0.13263136 7145:0.28427375 7931:0.13201916 8119:0.20232376 8584:0.11334336 9163:0.099611266 9742:0.15702601 10658:0.20429285 12668:0.20429285 14033:0.23968217 14800:0.29929098 15875:0.11484001 16076:0.29929098 16222:0.27361886 16459:0.12166911 16477:0.17210627 
1 0 255:0.85282126 1123:0.60074531 6292:0.58583923 16399:0.6816607 16904:0.38290305 
0.5161081646752236 0 416:0.39311092 5500:0.36391941 6193:0.56828533 6196:0.4666118 7746:0.44448241 11427:0.62160434 11488:0.56828533 13162:0.59041472 16341:0.28549297 
0.7557256227364579 0 1034:0.22327024 1486:0.40439689 5925:0.21220111 6905:0.35600109 10243:0.20810096 13364:0.47763771 16300:0.22445546 16436:0.31309774 16898:0.32077552 
1 0 14250:1.813933 
1 0 5467:0.70481367 6357:0.44763084 7337:0.55706444 16542:0.45775198 16606:0.67583847 16762:0.50363393 
1 0 5467:0.70481367 6357:0.44763084 7337:0.55706444 16542:0.45775198 16606:0.67583847 16762:0.50363393 
1 0 2105:0.75425139 8473:0.83163566 9163:0.4482507 16542:0.61033597 
0.5528857851314797 0 7117:1.055387 8584:0.43718154 8951:1.0235094 13372:0.76754375 14125:0.91087262 
1 0 539:0.23292952 3685:0.20883368 4500:0.24358441 5682:0.20574547 5941:0.25289235 6201:0.22002927 6297:0.29929098 7145:0.28427375 7308:0.1222864 8493:0.27361886 8597:0.29929098 10243:0.11561165 10688:0.25289235 10763:0.25860163 11041:0.21791229 12270:0.25860163 12371:0.27361886 13115:0.21401005 13155:0.28427375 15124:0.20429285 16898:0.089104312 
1 0 1097:1.5164883 12479:1.319374 
1 0 406:0.22002927 1247:0.16656805 1414:0.16042046 4032:0.16505613 6632:0.27361886 6706:0.29929098 6804:0.098612454 7308:0.24457281 8457:0.1808216 8963:0.1272765 9163:0.099611266 9742:0.078513003 10194:0.13630568 12515:0.19777839 13136:0.29929098 13392:0.27361886 14357:0.18236504 14864:0.25289235 15875:0.11484001 
1 0 5114:0.97544192 6905:0.76285949 9163:0.38421488 9616:0.92448836 9797:0.88700775 13577:0.65708805 
1 1 51:0.57274425 401:0.81369722 4327:0.71994272 6840:0.88471128 
1 0 834:0.52996042 1271:0.39814131 2105:0.41140985 6804:0.24204875 13223:0.39592391 14776:0.35869908 16477:0.84488531 16586:0.55772239 
0.3718816226399757 0 2523:1.8653166 3204:1.3468094 5139:1.3468094 9163:0.4482507 13010:0.93975156 
1 0 544:1.2312849 4341:0.99013171 7259:0.93265829 9742:0.35330851 14189:0.82064267 
1 0 4285:0.35080361 5698:0.6217722 6905:0.59333516 12947:0.58980752 16459:0.36500732 16898:0.26731293 
1 1 6847:1.0326171 9742:0.42397022 
1 0 1496:0.30861821 3320:0.34083035 4285:0.17540181 5902:0.23050171 6804:0.14791868 8122:0.39803143 9078:0.34494746 10761:0.3300439 11047:0.75867705 12129:0.39803143 14357:0.27354756 16542:0.20344532 16898:0.13365647 
1 0 87:0.58831077 609:0.3719884 2722:0.62073577 4750:0.47705846 6201:0.54007184 7345:0.57173609 14965:0.56445948 16898:0.43742117 
1 0 373:0.56994956 5051:1.3389124 6672:1.5350783 6724:0.72646801 8180:0.99796279 
1 0 6724:1.21078 
1 0 7308:0.41271662 10025:0.85351168 14807:0.5958338 16729:0.78569795 
1 0 4449:0.2731834 5293:0.27619174 6453:0.21994125 6647:0.19179499 6724:0.19117579 9849:0.18480597 9944:0.18818456 10358:0.23894195 13685:0.27033776 14983:0.21941228 16422:0.21994125 16724:0.26143901 16729:0.1654101 
1 0 137:0.34116979 610:0.25913329 1214:0.19311927 1430:0.30362421 2157:0.24850741 4107:0.29948081 5062:0.20248643 6790:0.22445527 7308:0.31445075 9320:0.2305799 9742:0.10094529 10197:0.36549482 10796:0.33248782 12192:0.24716594 14250:0.25913329 14623:0.24459131 
1 0 1398:0.62922225 3290:0.64855673 6804:0.76072465 8193:0.80550134 16898:0.34368806 
1 0 3290:0.22699485 3719:0.27579535 4044:0.29703951 6187:0.14013709 8209:0.34911221 8292:0.27579535 10194:0.18401267 11322:0.29703951 12956:0.29147823 13675:0.25682087 14709:0.19161806 16898:0.24058164 
1 0 969:0.53134236 6292:0.21968971 6338:0.28207766 7191:0.29613731 10243:0.2601262 14250:0.45348326 14982:0.61564244 15875:0.25839003 16724:0.41394509 
1 0.8410485846988237 1271:0.27372215 2771:0.50505353 5051:0.41841013 5277:0.307741 5902:0.25931442 5925:0.19893854 9264:0.35240684 10080:0.20131525 10796:0.43639026 12170:0.42675584 12317:0.50505353 13657:0.22887599 14901:0.19531434 
1 0 5102:0.46173183 6201:0.37129939 6719:0.31477087 7071:0.37508843 7127:0.27219769 7308:0.20635831 10376:0.18864134 13589:0.17549105 14045:0.25181697 16271:0.26181476 16880:0.29906372 
1 0 432:0.60153627 991:1.0481828 6905:0.89000273 7308:0.55028882 14045:0.67151191 
1 0 2305:0.36772714 2746:0.36521112 5104:0.27792223 6338:0.22566212 7308:0.22011553 8963:0.2290977 9163:0.17930028 10080:0.21473627 12419:0.29621802 13452:0.27341165 14976:0.23006624 16300:0.22445546 
1 0 3719:0.19699668 6201:0.21217108 6804:0.095090581 6939:0.15264978 7127:0.15554154 7308:0.11791903 8034:0.17740504 8248:0.22461061 8632:0.46976993 9742:0.075708967 11766:0.16654035 12739:0.22461061 12978:0.12558958 13223:0.15554154 14709:0.13687004 14976:0.12324977 15124:0.19699668 15484:0.188482 16898:0.17184403 
0 1 969:0.45543631 1018:0.42025942 1414:0.30938231 4768:0.51175469 5058:0.29497234 6357:0.25578905 8034:0.35481008 12110:0.54824224 12956:0.41639747 14803:0.33918942 14901:0.22321638 14981:0.26114356 16436:0.33546187 
1 0 1549:0.59704714 4882:0.43025714 5228:0.87958267 6338:0.28207766 6804:0.22187802 6840:0.44235564 9275:0.54806492 14730:0.7362158 16898:0.2004847 
1 0 252:0.085699849 416:0.10429473 647:0.13206977 821:0.10183294 2123:0.10964911 4381:0.086559267 5247:0.15664064 5365:0.074369487 5492:0.12520299 6338:0.069080242 6825:0.092948896 7011:0.20097371 7308:0.47167613 8119:0.11148452 8241:0.074735017 8370:0.081188022 8394:0.12520299 9163:0.10977568 9687:0.16491544 9742:0.043262267 9849:0.071659457 9944:0.072969522 10376:0.061597171 10528:0.11897071 11213:0.11105712 11533:0.15076958 12299:0.15664064 13440:0.15076958 13928:0.14621563 13959:0.083507599 14073:0.15076958 15875:0.06327919 16472:0.073774455 16496:0.10897993 16762:0.082225948 
1 0 51:0.2147791 739:0.89557071 1018:0.36772699 6187:0.35034272 6823:0.48452048 9163:0.16809401 15352:0.43639026 
1 0 513:0.29566247 2334:0.39129762 4173:0.42867249 4449:0.3707489 8453:0.3707489 9163:0.19210744 9488:0.54824224 9742:0.15141793 9759:0.37276111 11700:0.44350387 
1 0 257:0.22481199 2101:0.42641063 4709:0.39803143 5496:0.33341194 6692:0.30037265 7953:0.39803143 8193:0.31325052 8224:0.42641063 9742:0.58884752 9836:0.38790245 13224:0.41042829 15875:0.17226002 
1 0 605:0.35870229 2649:0.55112044 6804:0.20481048 11941:0.59041472 13223:0.33501254 13646:0.59041472 15256:0.52523796 15484:0.40596123 16374:0.27589368 16740:0.34179002 
0.3456425284750128 0 2750:1.6441948 4106:1.745561 9742:0.52996277 
1 0 8457:0.81369722 9163:0.4482507 
1 0 459:1.6736405 1034:0.8372634 2889:0.90230441 
1 0 9163:0.8965014 13121:2.3274147 
1 0 2413:1.2418353 6928:0.75615265 13976:1.2257006 
1 0 9282:1.7070234 13233:1.5164883 14981:0.91400245 
1 0 1629:0.71618515 2889:0.4511522 8584:0.38253385 9443:0.5356709 9916:0.5356709 10243:0.7803786 
0.3423916673546243 0 6187:0.70068544 11057:2.0202141 
1 0 1799:1.0072668 6292:0.52725531 9742:0.42397022 12066:1.2578194 
1 0 827:1.3153558 5260:0.98907244 7308:0.66034659 
1 0 2842:0.81369722 6270:1.3468094 8584:0.51004513 16390:0.91931784 
1 0 1281:0.36293025 1799:0.4196945 3803:0.55788017 4834:0.39424603 7308:0.27514441 8119:0.22761423 9742:0.17665426 11812:0.53134236 12066:0.52409141 16898:0.2004847 
1 1 9163:0.8965014 13207:2.2760312 
1 0 5799:0.35179568 6724:0.17296857 8564:0.17673374 9078:0.29566925 9163:0.12807163 9742:0.20189058 13589:0.13370747 14807:0.22698431 14954:0.25277465 14965:0.29566925 16578:0.63757734 16898:0.11456269 16904:0.32820261 
1 0 8370:1.326071 9944:1.1918355 
1 0 5925:0.39787708 8730:0.47552379 13589:0.35098211 14930:0.5958338 15345:0.95942391 
1 0 1398:1.4681852 16898:0.8019388 
1 0 1291:1.3516769 5070:1.1827381 8129:0.82209738 8209:0.87278052 15341:0.72228392 
1 0 1414:0.54141904 6231:0.58085865 9944:0.44693832 10053:0.62372675 13452:0.51264685 14708:0.53017551 16898:0.30072705 
1 1 6804:0.53250725 10080:0.6442088 12419:0.88865405 16346:1.1277019 
1 0 8269:1.2976212 
1 0 3613:0.93264462 14983:1.0422084 
1 1 5071:1.5522636 5500:1.1827381 10044:1.3119108 
1 0 373:0.089054619 2027:0.15011599 2123:0.16790019 5522:0.11953887 5725:0.20223183 6453:0.13059012 6636:0.091758536 6823:0.12113012 7011:0.1538705 7931:0.11139117 8119:0.085355336 8776:0.20920506 9163:0.084047006 9742:0.066245346 10277:0.21819513 10980:0.23985598 12360:0.22389268 12419:0.1388522 12978:0.10989088 13663:0.14521466 15504:0.17359774 15875:0.09689626 16341:0.11598152 16418:0.18956104 16496:0.16687551 
1 0 1398:0.33881198 2889:0.55526425 8101:0.47761956 10211:0.32067949 11526:0.41859993 14901:0.24038687 15875:0.47702774 
1 0 1485:0.2518167 2325:0.40404282 2889:0.18046088 3905:0.31445485 4667:0.36938546 9588:0.17182328 11645:0.34911221 13665:0.27579535 14131:0.35822828 14506:0.19532346 14596:0.29703951 14993:0.36938546 15875:0.15503402 16898:0.12029082 16904:0.17230637 
1 0 3669:0.25005895 6357:0.14921028 6905:0.22250068 7090:0.15517282 7931:0.14852156 8042:0.33670235 8119:0.11380712 8241:0.15258399 9750:0.22386693 10376:0.12576089 10658:0.22982946 12002:0.16645334 12790:0.20175742 13589:0.11699404 14777:0.14103883 14783:0.30782122 16264:0.17166847 16472:0.15062285 16724:0.20697255 
1 0 373:0.15831932 3185:0.35422824 6338:0.18805177 7345:0.34939428 8202:0.34494746 8241:0.20344532 9168:0.27237792 9588:0.19091475 10080:0.17894689 10243:0.17341747 12358:0.37192011 13712:0.39803143 14357:0.27354756 14708:0.23563356 16767:0.29153573 
1 0.4282954791195216 13509:1.5722742 16074:1.0857967 16767:1.3119108 
0.651393559612627 0 252:0.26245579 432:0.2255761 1281:0.27219769 2889:0.2255761 3631:0.1728244 4106:0.43639026 5071:0.38806589 5244:0.43639026 6292:0.16476728 8269:0.32440529 9563:0.31330022 14777:0.21155824 15875:0.19379252 
0.4607908360238628 0 8584:0.61205416 10074:1.6161713 14237:1.6161713 14357:0.9847712 
1 0 2998:1.0101071 3708:0.70481367 5116:0.92346365 5969:0.53289301 8584:0.38253385 9163:0.33618802 13589:0.35098211 
1 1 4610:0.53801977 5070:0.52566137 8193:0.62650104 9167:0.7758049 10080:0.35789378 16501:0.53801977 16770:0.75867705 
0.2482658817601927 0 5594:2.0202141 8570:1.3604498 12123:1.9188478 
1 0 373:0.086355994 460:0.1671487 1189:0.23258762 3000:0.18186106 3599:0.22386998 3651:0.15261618 3724:0.16957424 4324:0.21710805 4750:0.15901949 7315:0.24487444 8432:0.21158316 8776:0.20286552 9650:0.23258762 10220:0.13385742 10305:0.22386998 11862:0.23258762 13675:0.46694704 14718:0.21156363 14803:0.14389854 15943:0.23258762 16459:0.099547451 
0.7952938369745143 0 373:0.15831932 2838:0.42641063 5071:0.34494746 5522:0.21251354 6804:0.14791868 8903:0.2506291 9742:0.1177695 10244:0.29153573 11554:0.33341194 12192:0.28836026 14733:0.31572006 14803:0.26381399 14807:0.26481502 16374:0.19925654 16459:0.18250366 16767:0.29153573 
1 0 287:0.60014149 3290:0.45398971 4327:0.43196563 6804:0.26625363 8119:0.27313708 10243:0.31215144 10846:0.37567238 10865:0.56829611 16638:0.40378052 
1 0.4615220415543253 8370:0.79564261 9658:0.78129383 9944:0.71510131 13462:1.3389124 13589:0.56157137 
1 0.715352385419067 1414:0.54141904 5074:0.61285032 7191:0.44420597 8963:0.42955819 9658:0.48830864 14369:0.72869558 
0.59008013317999 0 5221:0.48377669 5740:0.59041472 7463:0.38041248 7661:0.62160434 8119:0.21010544 8737:0.62160434 10268:0.55112044 14221:0.59041472 14718:0.26852307 
1 0 2789:1.1637074 5487:0.66166376 6187:0.46712363 9320:0.80702966 14901:0.52083823 
1 0 6292:0.29291962 7191:0.19742488 8944:0.27474234 9588:0.19091475 9944:0.19863925 9980:0.2679311 10267:0.28535652 10268:0.39803143 14174:0.34939428 14777:0.18805177 14870:0.3043426 14976:0.19172187 
1 0.4766050646350909 897:0.92448836 8961:0.92448836 9320:0.69173971 9995:1.1544081 16767:0.7496633 
1 0 1402:0.35937334 5058:0.21734804 5570:0.3888268 6804:0.14013349 6841:0.59820644 7308:0.17377542 8570:0.28641048 9898:0.23385633 10023:0.40396796 13710:0.64578382 14189:0.25915032 16011:0.3888268 16751:0.3310051 16898:0.25324383 
1 0 9371:0.97239612 14291:1.0495286 16904:0.68922549 
1 0 479:1.0626847 2105:0.75425139 13274:0.74725736 14369:0.9715941 16729:0.52379864 
1 0 3056:0.88700775 4882:0.73758367 5058:0.58994467 6303:0.65275871 8730:0.54345576 
1 1 6303:0.76155183 7535:1.1380156 9742:0.35330851 10211:0.69480557 12393:1.2312849 
1 0 618:0.28641048 1904:0.36748653 5032:0.80793593 5221:0.3310051 8525:0.35234537 9163:0.14155285 9717:0.2731834 10688:0.35937334 12360:0.3770824 14131:0.3770824 14718:0.36745262 16898:0.12662192 
1 0 51:0.16364122 609:0.19485107 4299:0.22284091 4750:0.24988777 7901:0.38480269 8119:0.13006527 9658:0.18602234 10292:0.30362421 11213:0.25913329 13788:0.24988777 13959:0.19485107 14189:0.23446933 14901:0.14881092 14983:0.19851588 16459:0.15643171 16746:0.27515578 
1 0 1034:0.4186317 8584:0.38253385 9742:0.26498139 13663:0.58085865 
1 0 1271:0.27372215 6187:0.17517136 6804:0.16640852 6823:0.24226024 6990:0.34238542 7176:0.25691028 7191:0.22210299 8119:0.17071067 8756:0.3298435 10511:0.34474419 10846:0.23479524 12878:0.42675584 12894:0.50505353 13223:0.27219769 16472:0.22593427 
1 0 51:0.11454885 373:0.094991593 1214:0.13518349 2736:0.23881886 6453:0.13929613 7011:0.16412853 7191:0.11845493 8012:0.23881886 8436:0.24625697 9924:0.17034807 10243:0.10405048 10865:0.18943204 10904:0.16342675 12002:0.13316267 12522:0.24625697 13589:0.093595229 14045:0.13430238 14518:0.16632713 14806:0.17121391 16477:0.15489564 
1 0 1019:1.0964845 4007:0.81185159 6635:1.0964845 8673:0.91087262 15934:0.93953986 
1 0 442:0.21626831 2105:0.18102033 3290:0.18159588 6292:0.10545106 7176:0.16442258 7191:0.14214591 8119:0.10925483 8370:0.15912852 9023:0.1929104 9393:0.20441768 9588:0.13745862 9658:0.15625877 10316:0.24836217 11453:0.25504433 11476:0.19959256 12270:0.27928977 13331:0.29550837 13589:0.11231427 14708:0.16965616 14763:0.19447922 15302:0.29550837 16648:0.27928977 16762:0.16116286 
1 0.711117889410955 12561:1.3153558 16459:0.65701317 
1 0 140:0.17293493 3290:0.16213918 5062:0.15186482 5142:0.20137534 5293:0.18741582 5491:0.15730556 5925:0.11367916 6647:0.1301466 6804:0.095090581 6823:0.13843442 7141:0.24936586 7319:0.17986907 7366:0.22461061 7669:0.28860201 7931:0.12730419 8730:0.13586394 8903:0.32223741 9588:0.12273091 12000:0.17986907 13663:0.16595961 14708:0.15147872 15875:0.11073858 16459:0.11732378 16697:0.1471444 
1 0 2139:1.6736405 11907:1.745561 11988:1.0770239 
0.3250115265855382 0 5077:2.4625697 11906:1.6709345 
0.4062770278757705 0 373:0.31663864 4914:0.89787294 6978:0.39789408 7036:0.6816607 10680:0.58307145 14740:0.73075322 14823:0.55959266 
1 1 8269:1.7301616 16170:1.813933 
1 0 252:0.17497053 2950:0.29852357 5540:0.25562276 5922:0.59704714 6303:0.19038796 6990:0.22825695 8730:0.15850793 9742:0.088327128 10211:0.34740278 14518:0.20790892 14718:0.29089999 14918:0.26567118 16431:0.20886681 16767:0.21865179 16898:0.30072705 16936:0.54806492 
1 0 3194:0.69878855 5522:0.42502708 9716:0.82085658 13589:0.3119841 14901:0.34722548 
1 0 3613:0.7461157 6303:0.9138622 7178:0.92937384 9742:0.42397022 10211:0.83376668 
1 0 728:0.72869558 6338:0.42311648 8730:0.47552379 14718:0.43634998 14776:0.49321123 16477:0.58085865 16586:0.76686828 
1 0 533:0.42675584 1241:0.31186337 1642:0.41104869 2027:0.30023198 4807:0.39850677 11843:0.43639026 12826:0.41104869 13223:0.27219769 13402:0.39306856 13589:0.17549105 14823:0.31477087 
1 0 116:0.76753913 301:0.69822441 3613:0.37305785 8949:0.6576779 14688:0.54067078 14718:0.34907999 
1 0 1683:0.51630857 6647:0.36441049 7176:0.41105645 9002:0.47666704 10693:0.54067078 11367:0.56829611 13589:0.28078569 
1 0.2239206594774134 8515:1.0554992 8633:1.0437311 14708:0.84828082 16384:1.1767264 
0 0.6112021969682251 1455:1.0481828 6292:0.43937942 8770:0.52988204 9078:1.0348424 
0.5854340565346604 0 6928:0.50410177 9849:0.5852189 11766:0.77718829 13663:0.7744782 13976:0.81713376 16671:1.2792319 
1 0 757:0.76686828 827:0.82209738 1708:0.69949372 6928:0.37807633 9595:0.58495738 15722:0.95942391 15875:0.38758504 16684:0.82209738 
1 0 136:0.51175469 4426:0.37276111 4882:0.36879183 5925:0.22735833 8082:0.478183 9150:0.34586985 9163:0.19210744 9742:0.15141793 12826:0.46976993 13589:0.2005612 13657:0.26157256 13965:0.37276111 16275:0.43328239 16282:0.35481008 
1 0 373:0.23747898 1271:0.36496287 2123:0.44773385 4882:0.43025714 8241:0.30516798 8564:0.30928405 8718:0.35526201 9643:0.39279672 13976:0.40856688 15038:0.51742119 16341:0.30928405 
0.2465824343540068 0.1251465813900531 6244:3.0007074 10684:3.6938546 
1 0 5073:1.0348187 
1 0 414:0.95942391 1250:0.68948838 4285:0.39465406 6179:0.85351168 8315:0.95942391 11910:0.76686828 13169:0.92346365 15275:0.615482 
1 1 7168:1.319374 11140:1.8469273 13710:1.5337366 
0 0.4475382905756422 1549:1.0235094 5211:0.99746345 5812:0.74149781 8718:0.60902058 8756:0.75392801 14782:0.88700775 
1 0 95:0.89557071 1840:0.83682026 5104:0.52110418 9569:0.74259878 14045:0.50363393 14806:0.64205218 14981:0.45700122 
1 0 1563:0.60659534 3631:0.55303808 4326:0.80808564 5291:0.64714185 6357:0.35810467 11326:0.76753913 11545:0.56829611 13657:0.36620158 
1 1 2890:0.27775639 3000:0.30007074 6357:0.17905234 8119:0.13656854 9643:0.47135606 10080:0.1610522 10370:0.21100634 10376:0.15091307 12515:0.53400164 14415:0.29147823 14981:0.18280049 16106:0.40404282 
1 0 1271:0.62565064 2208:0.8764209 3613:0.53293978 5812:0.74149781 6636:0.41946759 9742:0.30283587 
1 1 252:0.83985852 3631:0.55303808 9643:0.94271212 10376:0.60365228 14976:0.69019872 
1 0.2335930700549047 9569:2.9703951 13222:3.0007074 
1 0 7:0.41539191 728:0.52996042 1334:0.65132415 5073:0.37629769 6063:0.73462331 16374:0.32605616 16459:0.29864235 16562:0.65132415 
0.5418083725479996 0 2301:2.0696847 6357:1.1936822 11906:1.6709345 
1 0 14506:0.97661729 14688:1.3516769 16300:0.84170796 
1 0 6357:0.17905234 6984:0.3347281 7931:0.17822587 8119:0.13656854 8373:0.26864031 8770:0.15896461 9163:0.13447521 9944:0.17877533 10083:0.35822828 11213:0.27208995 13589:0.14039284 13657:0.18310079 16459:0.16425329 
1 0 7308:0.47167613 8071:0.99746345 9443:0.61219532 9658:0.55806702 9849:0.5016162 15917:0.57311852 16790:0.6733658 
1 0 1281:0.25618606 1485:0.29625494 1708:0.32917352 1751:0.4753445 3459:0.36087919 3631:0.16265826 8730:0.2237759 8903:0.26537198 9742:0.12469712 9836:0.41072024 12790:0.284834 14125:0.3750652 15016:0.33429183 16264:0.24235549 
0.580703489551487 0 4285:0.31572325 4341:0.59407903 6357:0.35810467 6804:0.26625363 6823:0.38761638 9742:0.21198511 10267:0.51364174 13672:0.58295646 
1 0 1241:0.55442377 7931:0.79211499 11909:0.7758049 13184:0.82085658 13288:0.66682388 14076:0.53801977 14299:0.6477294 16317:0.66008781 
0 1 4285:0.78930813 6636:0.73406829 7782:1.2976212 10053:1.2474535 
1 0 373:0.25906798 4285:0.28702114 4381:0.38558219 10053:0.45361945 10267:0.46694704 13372:0.48843693 16016:0.67160993 16790:0.42850551 16898:0.21871058 
1 0 51:0.34364655 297:0.58836318 1056:0.76753913 6719:0.5036334 8963:0.34364655 9669:0.71645657 14777:0.33849319 16422:0.41788838 
1 0 7:0.18277244 460:0.22063628 487:0.25885674 2105:0.36204067 4285:0.2525786 8340:0.50312776 9588:0.13745862 10243:0.24972115 10250:0.16596123 13661:0.36796931 13753:0.45835849 14708:0.16965616 16459:0.26280527 16542:0.29296126 16898:0.19246531 
1 0 9849:1.1704378 9902:1.0815248 
0.2015690954307701 0 5291:2.1571395 15031:2.3274147 16323:2.5584638 
1 0.527702602464069 2523:2.7979749 
1 0 513:0.82785492 4834:0.94619047 9320:0.96843559 14981:0.73120196 16740:0.88865405 
1 0.7691520578132544 2750:0.6576779 3198:0.55551278 8241:0.36620158 8963:0.34364655 9914:0.80808564 10376:0.30182614 11570:0.58295646 16459:0.32850659 16898:0.24058164 
1 0 2019:0.63564052 3572:0.80892731 4381:0.53017551 6187:0.35034272 8119:0.34142135 16898:0.30072705 
0.7512825762022802 0.4936180990153064 2289:0.57294812 3775:3.5822828 8944:0.49453622 16422:0.41788838 16609:0.64714185 
1 0 14981:1.8280049 
1 0 13274:4.4835442 
0 1 401:0.30513646 2523:0.34974686 6187:0.17517136 6464:0.39306856 7127:0.27219769 7308:0.20635831 7912:0.44778536 9742:0.13249069 14189:0.307741 14595:0.38806589 14901:0.19531434 14930:0.2979169 14976:0.2156871 
0.4334665559336738 0 1527:1.9188478 4440:1.7911414 5842:1.8469273 11766:1.1657824 
1 0 51:0.2147791 821:0.93559012 5210:0.70481367 6656:0.33791924 16898:0.30072705 16904:0.64614889 
1 1 605:0.51812553 6636:0.32625257 9002:0.52963005 9588:0.3818295 13223:0.483907 14708:0.47126712 
1 1 8:1.2522413 
1 0 64:1.5522636 3613:0.93264462 5365:0.91102622 6453:1.0447209 
1 1 1034:0.5581756 4292:0.96304522 5925:0.53050277 9023:1.6075866 
0 0.6880786066843432 3651:1.3735456 3708:0.51259176 6825:0.41404508 10194:1.0037055 14889:0.5014461 16904:0.62656862 
